tree
version=v4
num_class=1
num_tree_per_iteration=1
label_index=0
max_feature_idx=211
objective=binary sigmoid:1
average_output
feature_names=numero_de_cliente foto_mes internet cliente_edad cliente_antiguedad mrentabilidad mrentabilidad_annual mcomisiones mactivos_margen mpasivos_margen cproductos mcuenta_corriente mcaja_ahorro cdescubierto_preacordado mcuentas_saldo ctarjeta_visa_transacciones mtarjeta_visa_consumo mtarjeta_master_consumo mprestamos_personales cpayroll_trx mpayroll ccomisiones_mantenimiento ccallcenter_transacciones chomebanking_transacciones ctrx_quarter Master_status Master_fechaalta Master_mpagominimo Visa_status Visa_fechaalta Visa_mpagominimo kmes ctrx_quarter_normalizado foto_mes_formato_fecha mpayroll_sobre_edad vm_status01 vm_status02 vm_status03 vm_status04 vm_status05 vm_status06 mv_status07 vm_fechaalta vm_mpagominimo internet_lag1 cliente_edad_lag1 cliente_antiguedad_lag1 mrentabilidad_lag1 mrentabilidad_annual_lag1 mcomisiones_lag1 mactivos_margen_lag1 mpasivos_margen_lag1 cproductos_lag1 mcuenta_corriente_lag1 mcaja_ahorro_lag1 cdescubierto_preacordado_lag1 mcuentas_saldo_lag1 ctarjeta_visa_transacciones_lag1 mtarjeta_visa_consumo_lag1 mtarjeta_master_consumo_lag1 mprestamos_personales_lag1 cpayroll_trx_lag1 mpayroll_lag1 ccomisiones_mantenimiento_lag1 ccallcenter_transacciones_lag1 chomebanking_transacciones_lag1 ctrx_quarter_lag1 Master_status_lag1 Master_fechaalta_lag1 Master_mpagominimo_lag1 Visa_status_lag1 Visa_fechaalta_lag1 Visa_mpagominimo_lag1 kmes_lag1 ctrx_quarter_normalizado_lag1 foto_mes_formato_fecha_lag1 mpayroll_sobre_edad_lag1 vm_status01_lag1 vm_status02_lag1 vm_status03_lag1 vm_status04_lag1 vm_status05_lag1 vm_status06_lag1 mv_status07_lag1 vm_fechaalta_lag1 vm_mpagominimo_lag1 internet_lag2 cliente_edad_lag2 cliente_antiguedad_lag2 mrentabilidad_lag2 mrentabilidad_annual_lag2 mcomisiones_lag2 mactivos_margen_lag2 mpasivos_margen_lag2 cproductos_lag2 mcuenta_corriente_lag2 mcaja_ahorro_lag2 cdescubierto_preacordado_lag2 mcuentas_saldo_lag2 ctarjeta_visa_transacciones_lag2 mtarjeta_visa_consumo_lag2 mtarjeta_master_consumo_lag2 mprestamos_personales_lag2 cpayroll_trx_lag2 mpayroll_lag2 ccomisiones_mantenimiento_lag2 ccallcenter_transacciones_lag2 chomebanking_transacciones_lag2 ctrx_quarter_lag2 Master_status_lag2 Master_fechaalta_lag2 Master_mpagominimo_lag2 Visa_status_lag2 Visa_fechaalta_lag2 Visa_mpagominimo_lag2 kmes_lag2 ctrx_quarter_normalizado_lag2 foto_mes_formato_fecha_lag2 mpayroll_sobre_edad_lag2 vm_status01_lag2 vm_status02_lag2 vm_status03_lag2 vm_status04_lag2 vm_status05_lag2 vm_status06_lag2 mv_status07_lag2 vm_fechaalta_lag2 vm_mpagominimo_lag2 internet_delta1 internet_delta2 cliente_edad_delta1 cliente_edad_delta2 cliente_antiguedad_delta1 cliente_antiguedad_delta2 mrentabilidad_delta1 mrentabilidad_delta2 mrentabilidad_annual_delta1 mrentabilidad_annual_delta2 mcomisiones_delta1 mcomisiones_delta2 mactivos_margen_delta1 mactivos_margen_delta2 mpasivos_margen_delta1 mpasivos_margen_delta2 cproductos_delta1 cproductos_delta2 mcuenta_corriente_delta1 mcuenta_corriente_delta2 mcaja_ahorro_delta1 mcaja_ahorro_delta2 cdescubierto_preacordado_delta1 cdescubierto_preacordado_delta2 mcuentas_saldo_delta1 mcuentas_saldo_delta2 ctarjeta_visa_transacciones_delta1 ctarjeta_visa_transacciones_delta2 mtarjeta_visa_consumo_delta1 mtarjeta_visa_consumo_delta2 mtarjeta_master_consumo_delta1 mtarjeta_master_consumo_delta2 mprestamos_personales_delta1 mprestamos_personales_delta2 cpayroll_trx_delta1 cpayroll_trx_delta2 mpayroll_delta1 mpayroll_delta2 ccomisiones_mantenimiento_delta1 ccomisiones_mantenimiento_delta2 ccallcenter_transacciones_delta1 ccallcenter_transacciones_delta2 chomebanking_transacciones_delta1 chomebanking_transacciones_delta2 ctrx_quarter_delta1 ctrx_quarter_delta2 Master_status_delta1 Master_status_delta2 Master_fechaalta_delta1 Master_fechaalta_delta2 Master_mpagominimo_delta1 Master_mpagominimo_delta2 Visa_status_delta1 Visa_status_delta2 Visa_fechaalta_delta1 Visa_fechaalta_delta2 Visa_mpagominimo_delta1 Visa_mpagominimo_delta2 kmes_delta1 kmes_delta2 ctrx_quarter_normalizado_delta1 ctrx_quarter_normalizado_delta2 foto_mes_formato_fecha_delta1 foto_mes_formato_fecha_delta2 mpayroll_sobre_edad_delta1 mpayroll_sobre_edad_delta2 vm_status01_delta1 vm_status01_delta2 vm_status02_delta1 vm_status02_delta2 vm_status03_delta1 vm_status03_delta2 vm_status04_delta1 vm_status04_delta2 vm_status05_delta1 vm_status05_delta2 vm_status06_delta1 vm_status06_delta2 mv_status07_delta1 mv_status07_delta2 vm_fechaalta_delta1 vm_fechaalta_delta2 vm_mpagominimo_delta1 vm_mpagominimo_delta2
feature_infos=[29186441:186129871] [202101:202103] [0:3] [19:92] [1:375] [-132031.95546462113:584652.60308303311] [-667018.91575460392:2573627.0107244016] [-21764.014782946251:186141.96514316116] [-86170.00967735381:110991.55905417315] [-28168.722167399192:411464.73329145258] [4:16] [-2526911.0454050521:18753807.153156545] [0:15454811.957981905] [0:1] [-2526836.2148145419:131846745.92929399] [0:333] [0:1348437.5991756644] [0:1748500.6278941503] [0:2262725.101561971] [0:37] [0:13470493.600663258] [0:7] [0:72] [0:1625] [0:2057] [0:9] [1:7602] [0:461675.26639310276] [0:9] [1:11852] [0:905966.87683075655] [1:3] [0:2057] [18628:18687] [0:268337.6641851826] [0:9] [0:18] [0:10] [0:20] [0:1010] [0:10] [0:10] [1:11852] [0:919531.1279044128] [0:3] [19:92] [1:374] [-150300.5:584652.60308303311] [-703135.65000000002:2392998.6413151752] [-10761.41335874994:186141.96514316116] [-89657.149999999994:90699.639999999999] [-40138.290000000001:411464.73329145258] [4:16] [-2610299.1099999999:18753807.153156545] [0:15454811.957981905] [0:1] [-2610221.8100000001:131846745.92929399] [0:328] [0:1724164.45] [0:1748500.6278941503] [0:2440728.8500000001] [0:49] [0:18603188.800000001] [0:7] [0:63] [0:1625] [0:1978] [0:9] [2:7571] [0:2057125.29] [0:9] [2:11821] [0:912664.38] [1:12] [0:1978] [18567:18659] [0:395812.52765957447] [0:9] [0:18] [0:10] [0:20] [0:1010] [0:10] [0:10] [2:11821] [0:2266341.5699999998] [0:4] [19:92] [1:373] [-150300.5:354053.67032999999] [-735630.23322000005:2094551.08971] [-15703.882089999999:186141.96514316116] [-89657.149999999994:108016.37768999999] [-40138.290000000001:301168.42285999999] [4:17] [-2706880.1770699997:7970737.9474301552] [-74.77807:12524644.210000001] [0:1] [-2706800.0169699998:131846745.92929399] [0:280] [0:1724164.45] [0:1279752.0455299998] [0:2440728.8500000001] [0:49] [0:21571833.397269998] [0:13] [0:43] [0:1625] [0:2018] [0:9] [1:7543] [0:2057125.29] [0:9] [1:11793] [0:988666.40477999987] [1:12] [0:2018] [18444:18628] [0:440241.49790346937] [0:9] [0:18] [0:10] [0:20] [0:1010] [0:10] [0:10] [1:11793] [0:2266341.5699999998] [-3:3] [-3:3] [0:14] [-2:15] [1:3] [-16:4] [-181201.36409040247:380666.21393278777] [-150067.28117975465:340065.07308303309] [-146872.4675447077:326169.12541875336] [-244479.69092205778:506797.49482797971] [-185136.29137371155:181774.98514316115] [-185021.32411751905:164762.53020316115] [-58332.745871702558:92487.496923645478] [-82961.043712224229:91392.014040377515] [-147286.18435566995:240743.50386892125] [-130447.19343746867:204104.44329145257] [-5:4] [-5:4] [-10761329.727151915:10783069.205726389] [-5900227.6439271094:12179643.823156545] [-5641597.0754561573:11385912.790659076] [-8285782.7016345281:9685135.4479819052] [-1:1] [-1:1] [-36407016.843206033:21457272.901372708] [-36643042.739169382:21663377.161108512] [-158:150] [-251:151] [-1241104.6294495221:730952.91782962799] [-1174555.4446713801:711677.53412980598] [-1318900.0670392355:1657102.380075654] [-1279752.0455299998:1583758.3878941503] [-586500:1703291.3842545] [-586500:2162139.409591971] [-30:36] [-42:36] [-18321432.614144016:13298852.050663257] [-21571833.397269998:13364256.673493259] [-6:6] [-10:6] [-39:40] [-39:68] [-773:697] [-1066:1079] [-405:204] [-652:316] [-9:9] [-9:9] [-484:62] [-1738:92] [-541230.0010766401:447151.86852335942] [-948537.84753827588:448091.92639310274] [-7:9] [-9:9] [-484:62] [-4846:768] [-672514.11512927513:652150.83414888883] [-655368.74458465481:814347.0220588888] [-11:1] [-10:2] [-405:204] [-652:316] [28:90] [59:184] [-389942.60712090816:233869.04950084136] [-440241.49790346937:230398.87455686706] [-9:9] [-9:9] [-9:18] [-18:18] [-10:10] [-10:10] [-20:20] [-20:20] [-1010:1010] [-1010:1010] [-10:10] [-10:10] [-10:10] [-10:10] [-2789:4171] [-4846:4199] [-2266341.5699999998:726374.99596754834] [-2266341.5699999998:814347.0220588888]
tree_sizes=1808 1806 1798 1809 1794 1808 1801 1778 1783 1796 1796 1826 1793 1797 1775 1792 1813 1785 1798 1787

Tree=0
num_leaves=16
num_cat=0
split_feature=74 11 18 32 10 32 144 167 14 167 60 84 29 34 32
split_gain=1158.88 364.988 386.633 412.734 190.69 138.046 130.425 116.647 51.4995 62.9847 36.5445 115.359 30.5716 27.0318 25.8964
threshold=12.500000000000002 -1778.2691078080527 3832.0716358698305 1.0000000180025095e-35 6.5000000000000009 38.20000000000001 -1.0000000180025095e-35 1.0000000180025095e-35 1.0000000180025095e-35 1.0000000180025095e-35 7232.8019779021688 5971.5000000000009 1348.5000000000002 283.54383147396322 22.400000000000002
decision_type=8 2 2 2 2 2 8 10 2 10 10 8 8 2 2
left_child=1 2 3 -1 -5 6 -2 10 9 12 11 -3 -8 -7 -14
right_child=5 7 -4 4 -6 13 8 -9 -10 -11 -12 -13 14 -15 -16
leaf_value=32.831146831845793 6.7646415820370054 -1.6025709186245707 -3.949950615035327 16.897936363360124 -0.78758553939456144 -4.8455648923132024 -5.2533892594537779 10.013928940046409 -4.3467768550186934 4.2951831899498645 -5.5826503783987302 9.9119905131284654 1.0546290944046692 -5.4911344827221509 -3.0993961293725478
leaf_weight=1.0933571755886071 1.2958307266235349 5.5275279432535154 1.2249649837613104 1.4679332450032236 1.0427387878298757 112.60566540807486 3.0371032655239079 1.1540992408990858 21.846896156668663 1.5185516327619542 1.3059544041752813 1.0326151102781294 2.5612904205918321 152.97889148443937 3.6242765635251999
leaf_count=108 128 546 121 145 103 11123 300 114 2158 150 129 102 253 15111 358
internal_value=-4.56132 4.38183 11.3981 16.6147 9.55274 -4.97491 -3.07409 0.62564 -3.46531 -1.67248 -0.751792 0.209906 -2.65508 -5.21742 -1.37932
internal_weight=313.318 13.8492 4.82899 3.60403 2.51067 299.469 33.8839 9.0202 32.5881 10.7412 7.8661 6.56014 9.22267 265.585 6.18557
internal_count=30949 1368 477 356 248 29581 3347 891 3219 1061 777 648 911 26234 611
is_linear=0
shrinkage=1


Tree=1
num_leaves=16
num_cat=0
split_feature=96 32 13 152 116 145 139 66 136 65 87 57 24 5 15
split_gain=697.091 706.428 197.193 160.508 79.0655 95.5939 77.4125 72.5343 93.4586 56.2881 45.3313 34.4818 33.5971 37.8498 30.9863
threshold=265.84968726516007 12.500000000000002 1.0000000180025095e-35 -1248.5994447168439 23.500000000000004 -1.4999999999999998 1.0000000180025095e-35 31.500000000000004 895.29586984898026 29.500000000000004 46.500000000000007 1.0000000180025095e-35 12.500000000000002 640.93040345285306 4.5000000000000009
decision_type=8 2 2 10 8 8 8 10 10 10 10 8 2 2 2
left_child=1 2 -1 6 9 -6 -4 8 11 12 -5 -3 13 -2 -7
right_child=4 7 3 10 5 14 -8 -9 -10 -11 -12 -13 -14 -15 -16
leaf_value=17.587576510320186 -3.9566695441026654 2.0156831357155562 15.447575928407947 -2.8234789905918634 3.1976461268000165 -4.6452991576653035 5.8778195075305719 -4.1988311326661059 6.9385471026065249 3.0938250532588194 4.3536319092892013 -4.0488252901458432 -4.6752378458732693 1.7682955329304546 -5.4005081441159213
leaf_weight=1.6400357633829115 2.4600536450743657 1.3160780817270303 1.5691700205206869 1.8121382817626019 1.3666964694857595 75.745355442166328 1.8323856368660929 15.175392650067804 1.4375622123479841 1.4983042776584614 1.710901506245136 3.2598241716623306 7.7142422944307327 2.1765906736254692 192.15752360969782
leaf_count=162 243 130 155 179 135 7482 181 1499 142 148 169 322 762 215 18981
internal_value=-4.54069 0.0637465 7.72791 5.39272 -5.02458 -5.14443 10.2924 -3.03414 -0.0949651 -2.69439 0.661957 -2.30461 -3.39657 -1.26919 -5.18698
internal_weight=312.872 29.7535 8.56463 6.9246 283.119 269.27 3.40156 21.1889 6.01346 13.8492 3.52304 4.5759 12.3509 4.63664 267.903
internal_count=30905 2939 846 684 27966 26598 336 2093 594 1368 348 452 1220 458 26463
is_linear=0
shrinkage=1


Tree=2
num_leaves=16
num_cat=0
split_feature=12 24 66 119 139 74 66 15 19 90 51 102 113 153 60
split_gain=714.664 930.502 238.391 199.922 145.636 109.794 52.1662 45.706 61.9383 48.6588 43.6065 43.8919 48.8041 41.6318 36.9422
threshold=221.66308976114402 12.500000000000002 1.0000000180025095e-35 8.0000000000000018 -52.748856971092003 12.500000000000002 47.500000000000007 2.5000000000000004 1.0000000180025095e-35 23243.647816607754 148.46962045781203 44165.3634454559 5082.5000000000009 9686.6599867322893 14672.543078140867
decision_type=2 2 8 8 8 8 8 2 2 8 10 8 8 10 8
left_child=1 2 3 -1 -4 -2 10 8 9 13 11 12 -3 14 -7
right_child=5 6 4 -5 -6 7 -8 -9 -10 -11 -12 -13 -14 -15 -16
leaf_value=9.494042962764901 -0.47681195340740867 -0.60641180492337021 12.093472849172432 26.428847296805024 1.667135726811245 -0.11395359315383224 -5.0668366150384907 -5.3665446303218243 -5.2243250978056741 -4.7688226899663029 -4.7407895629144754 -5.5826503783987302 7.1313928283865797 -5.2273326241415869 -5.5826503783987294
leaf_weight=1.9234987348318111 5.0922098085284224 4.01909998804331 1.9234987348318098 1.0933571755886076 4.4139234125614175 8.7772284373640979 11.632105506956576 222.11348548531532 33.489125341176987 9.8300909027457255 3.5635344982147217 1.2857070490717886 1.022491432726383 2.8143823593854895 1.437562212347985
leaf_count=190 503 397 190 108 436 867 1149 21940 3308 971 352 127 101 278 142
internal_value=-4.58084 -0.0122 8.31473 15.6315 4.83168 -5.07834 -3.63124 -5.16249 -4.35813 -3.08913 -1.94292 -0.367154 0.962902 -1.82186 -0.883582
internal_weight=314.431 30.8772 9.35428 3.01686 6.33742 283.554 21.5229 278.462 56.3484 22.8593 9.89083 6.3273 5.04159 13.0292 10.2148
internal_count=31059 3050 924 298 626 28009 2126 27506 5566 2258 977 625 498 1287 1009
is_linear=0
shrinkage=1


Tree=3
num_leaves=16
num_cat=0
split_feature=74 52 32 166 14 160 7 92 29 29 91 166 90 168 51
split_gain=995.513 236.477 123.195 152.988 113.755 119.24 113.314 43.1543 44.1007 41.0762 62.8639 29.6026 24.8599 24.7015 24.8658
threshold=12.500000000000002 4.5000000000000009 38.20000000000001 1.0000000180025095e-35 -1.0000000180025095e-35 -1.0000000180025095e-35 46.964090001445008 1.0000000180025095e-35 1348.5000000000002 617.50000000000011 367.03711177926999 1.0000000180025095e-35 1193.6350000000002 3.5000000000000004 195.12582284247003
decision_type=8 8 2 10 2 10 2 10 8 10 10 10 10 8 8
left_child=1 -1 3 13 5 -3 -7 -8 -9 12 -11 -4 -6 14 -2
right_child=2 4 11 -5 9 6 7 8 -10 10 -12 -13 -14 -15 -16
leaf_value=14.517592347892034 -3.0006429443129718 -3.8187515269079109 -5.2920460879558071 5.5697423600593607 -5.5826503783987294 16.911426064375298 -0.19474115929950209 2.319616476280137 11.000573860434667 4.7913300815107478 -4.6236374105978966 -3.3433430203348173 -0.094965062649513321 0.54313788104224514 -4.8301838323333941
leaf_weight=1.7412725389003725 15.10452690720558 1.133851885795593 258.08291182667017 1.8830040246248234 1.9032513797283184 1.0224914327263821 1.1136045306921007 1.0123677551746371 1.3869438245892522 2.2170853838324551 1.0427387878298757 8.0381999760866147 1.4578095674514768 1.305954404175284 14.618590384721758
leaf_count=172 1492 112 25493 186 188 101 110 100 137 219 103 794 144 129 1444
internal_value=-4.62119 3.611 -5.00746 -3.18232 2.06575 5.35352 7.64659 4.94991 7.33772 -0.74946 1.77971 -5.23319 -3.20245 -3.71344 -3.90046
internal_weight=313.065 14.0314 299.033 32.9121 12.2901 5.66926 4.53541 3.51292 2.39931 6.62089 3.25982 266.121 3.36106 31.0291 29.7231
internal_count=30924 1386 29538 3251 1214 560 448 347 237 654 322 26287 332 3065 2936
is_linear=0
shrinkage=1


Tree=4
num_leaves=16
num_cat=0
split_feature=116 74 11 206 56 18 42 74 189 139 88 136 56 188 6
split_gain=966.014 283.77 360.727 143.209 94.5768 143.143 238.622 88.5258 63.2898 52.3661 48.4855 90.2733 46.3602 48.9795 45.7725
threshold=13.100000000000001 1.0000000180025095e-35 -205.01695028712396 1.0000000180025095e-35 312.20232332139307 10869.749053232781 5995.5000000000009 31.100000000000005 -13.499999999999998 401.47238791882575 40.500000000000007 -129.18278346513532 -1449.6645289289438 1.0999999999999999 17651.89522281467
decision_type=8 8 2 10 10 2 8 8 8 10 10 8 8 8 2
left_child=1 2 -1 7 5 6 10 8 -2 -6 -3 -12 13 14 -10
right_child=3 4 -4 -5 9 -7 -8 -9 12 -11 11 -13 -14 -15 -16
leaf_value=20.580260153984018 3.6778185919280721 -1.4912400246448767 -0.60820181879871349 6.5316738091986037 -3.7056273725367648 -5.5826503783987302 19.596141070332962 -5.1956279941875412 6.2117777629130151 4.2951831899498574 -0.87892010775654539 12.122900357320429 -4.2559572251406781 -4.9106889111641321 -2.6486404076021195
leaf_weight=1.8728803470730784 1.2958307266235349 1.7109015062451365 1.4071911796927423 1.0731098204851139 4.2620682492852211 1.3363254368305204 1.0326151102781294 273.88597248494625 1.3565727919340136 1.0123677551746366 1.0629861429333685 1.0731098204851153 16.582583829760559 1.4881806001067164 1.022491432726383
leaf_count=185 128 169 139 106 421 132 102 27054 134 100 105 106 1638 147 101
internal_value=-4.60665 3.28641 11.4901 -4.99958 0.944552 3.58733 6.09861 -5.04144 -3.0994 -2.16996 2.47558 5.6528 -3.52884 -0.41101 2.40368
internal_weight=311.475 14.7704 3.28007 296.705 11.4904 6.21594 4.87961 295.632 21.7457 5.27444 3.847 2.1361 20.4498 3.86724 2.37906
internal_count=30767 1459 324 29308 1135 614 482 29202 2148 521 380 211 2020 382 235
is_linear=0
shrinkage=1


Tree=5
num_leaves=16
num_cat=0
split_feature=16 12 102 13 6 74 28 173 20 54 188 98 184 32 136
split_gain=437.256 615.175 460.04 329.765 134.736 125.466 120.949 117.889 104.789 59.1233 45.8932 56.2049 38.8008 36.6096 41.6729
threshold=1173.7974081065702 221.66308976114402 23409.367625000003 1.0000000180025095e-35 2339.1335911068431 22.400000000000002 8.0000000000000018 -1.0000000180025095e-35 1.0000000180025095e-35 247.90784422232002 -4.8999999999999986 3423.2418300000004 -1.0000000180025095e-35 45.300000000000004 1892.3165607137364
decision_type=2 2 8 2 2 8 8 8 2 10 8 8 8 2 8
left_child=1 2 3 -1 -5 9 7 -6 10 12 11 -3 -2 14 -7
right_child=5 8 -4 4 6 13 -8 -9 -10 -11 -12 -13 -14 -15 -16
leaf_value=23.621379301936248 6.2117777629130186 7.2585332604544339 -4.4677707431449392 -0.62306867044127401 -0.56002314025537903 -4.5033865649995608 16.067395798803659 10.292439285018649 -5.2891663589656233 -3.5103776018221025 -2.9778087712006283 -1.2745609716423347 -0.80305349048812058 -5.3463595071792636 -0.26381691851872358
leaf_weight=1.1642229184508313 1.3565727919340131 1.0123677551746366 4.4847891554236421 2.4195589348673794 1.791890926659107 19.45770825445652 1.4780569225549696 2.2677037715911865 23.851384311914444 4.343057669699192 14.588219352066519 3.2497004941105843 1.8830040246248239 228.53189705312252 2.6321561634540585
leaf_count=115 134 100 443 239 177 1922 146 224 2356 429 1441 321 186 22574 260
internal_value=-4.55566 -2.03075 3.82481 7.90207 5.60217 -5.10628 8.32216 5.5022 -3.89653 -1.09872 -2.13443 0.752302 2.13441 -5.22753 -3.99821
internal_weight=314.512 56.3079 13.6062 9.12143 7.95721 258.204 5.53765 4.05959 42.7017 7.58263 18.8503 4.26207 3.23958 250.622 22.0899
internal_count=31067 5562 1344 901 786 25505 547 401 4218 749 1862 421 320 24756 2182
is_linear=0
shrinkage=1


Tree=6
num_leaves=16
num_cat=0
split_feature=108 12 66 66 122 45 126 18 145 12 146 201 71 110 172
split_gain=1116.55 269.497 261.131 146.231 118.827 98.8333 85.2448 250.494 58.4772 61.1832 44.5335 38.8767 34.044 48.942 33.5609
threshold=12.500000000000002 1.0000000180025095e-35 1.0000000180025095e-35 31.500000000000004 17.500000000000004 43.500000000000007 4606.5000000000009 7159.6318863746337 -1.0000000180025095e-35 1785.2173579790121 -12.33839785788297 2.5000000000000004 614.50000000000011 2073.5000000000005 4.5000000000000009
decision_type=8 2 10 8 8 10 8 2 8 2 10 10 10 8 10
left_child=1 2 5 8 10 -1 12 -8 -2 14 -4 -5 -3 -14 -10
right_child=3 6 4 11 -6 -7 7 -9 9 -11 -12 -13 13 -15 -16
leaf_value=10.880405568848936 4.1332514921080792 -4.4769227401507532 -2.2152071164617113 -5.2172918354061064 12.938287562254871 24.403630096945196 14.320447110064837 -5.5826503783987302 -0.087519085287575571 -4.3342669890339796 6.0383302902466616 0.70324371055037549 4.7374742452490475 -3.9633333999809288 -5.5826503783987302
leaf_weight=1.032615110278128 1.2350886613130567 2.7131455838680267 1.7817672491073611 273.70374628901482 1.133851885795593 1.133851885795593 1.3565727919340136 1.1844702735543249 7.4611503556370788 12.816575780510901 1.0326151102781298 1.1136045306920994 1.3565727919340136 1.2350886613130567 1.3059544041752813
leaf_count=102 122 268 176 27036 112 112 134 117 737 1266 102 110 134 122 129
internal_value=-4.58136 4.15909 9.13598 -4.99132 4.29518 17.958 0.280322 5.04291 -2.55882 -2.94177 0.813069 -5.1933 -2.00099 0.590996 -0.906078
internal_weight=311.597 13.9606 6.1147 297.636 3.94823 2.16647 7.84585 2.54104 22.8188 21.5837 2.81438 274.817 5.30481 2.59166 8.7671
internal_count=30779 1379 604 29400 390 214 775 251 2254 2132 278 27146 524 256 866
is_linear=0
shrinkage=1


Tree=7
num_leaves=16
num_cat=0
split_feature=51 96 18 184 66 108 203 27 4 143 14 100 87 46 104
split_gain=606.803 546.07 398.555 834.43 110.262 107.328 70.8996 56.5722 72.929 69.2701 52.7795 52.5409 58.4375 49.1147 29.574
threshold=62.220450984445002 265.84968726516007 10869.749053232781 inf 22.500000000000004 1.0000000180025095e-35 8.0000000000000018 26.983637613855006 53.500000000000007 1.0000000180025095e-35 255.13930248069002 1183.1767618367803 57.500000000000007 71.500000000000014 26604.264155000001
decision_type=8 8 2 8 8 8 10 8 2 10 2 10 10 10 10
left_child=1 2 3 5 10 -1 14 8 -7 -10 -2 12 -3 -5 -6
right_child=4 11 -4 13 6 7 -8 -9 9 -11 -12 -13 -14 -15 -16
leaf_value=10.435458110815226 1.0915614921070782 -2.9504086140421633 -4.9998873360182827 29.383132164428144 -4.8152537428387525 -2.2530435576070715 3.1330851230853245 -3.8496971207937145 10.173403166206381 0.67794836210389686 -3.4570406231844761 -5.0360508924031562 4.2951831899498591 19.84543603517189 -5.4832972136908635
leaf_weight=1.4983042776584596 3.7457606941461545 7.2181820943951625 3.4319266900420198 1.143975563347339 125.09828350692987 1.8020146042108542 1.0326151102781285 1.7311488613486288 1.6501594409346583 1.4375622123479841 7.997705265879631 12.806452102959154 1.3160780817270277 1.022491432726383 140.9114678427577
leaf_count=148 370 713 339 113 12357 178 102 171 163 142 790 1265 130 101 13919
internal_value=-4.51206 -0.590964 4.33163 7.4452 -5.00515 2.79257 -5.13703 1.06299 2.80226 5.75257 -2.00619 -3.75516 -1.83306 24.8817 -5.16913
internal_weight=313.844 35.0583 13.7176 10.2857 278.786 8.11919 267.042 6.62089 4.88974 3.08772 11.7435 21.3407 8.53426 2.16647 266.01
internal_count=31001 3463 1355 1016 27538 802 26378 654 483 305 1160 2108 843 214 26276
is_linear=0
shrinkage=1


Tree=8
num_leaves=16
num_cat=0
split_feature=66 53 60 70 24 139 51 98 87 108 4 98 84 65 107
split_gain=909.743 230.012 235.472 234.936 127.4 97.7452 96.2269 56.5963 52.0302 89.0383 44.0204 50.1736 27.2676 22.352 18.5231
threshold=12.500000000000002 -1599.9712199798316 23467.960000000003 8.0000000000000018 38.500000000000007 1019.6384883988832 105.37819523004602 -6860.5016399999995 65.500000000000014 46.500000000000007 18.500000000000004 308.90171000000004 2154.5000000000005 29.500000000000004 22.500000000000004
decision_type=8 10 10 8 2 10 8 8 10 10 2 10 8 10 8
left_child=1 2 3 7 6 10 8 -1 9 13 -3 -12 -13 -2 -8
right_child=4 5 -4 -5 -6 -7 14 -9 -10 -11 11 12 -14 -15 -16
leaf_value=12.63859600981711 -3.353685558937646 -4.7199574903333517 -3.1336007333536253 24.299871340975152 -5.2495719561879914 8.0172654041101978 -5.1097034907213015 2.7755164871269988 4.0129593737113334 7.0067453459671265 3.8836067912686714 1.4173891582262526 -4.5373769849226893 1.0025720005003329 -3.0700059095024264
leaf_weight=1.0427387878298757 8.5241364985704404 2.3183221593499166 1.2249649837613104 1.2047176286578176 267.20434530079365 1.3970675021409986 14.800816580653192 1.3160780817270277 1.7716435715556134 1.0326151102781285 2.4296826124191284 1.285707049071789 1.9133750572800634 1.3666964694857586 6.3677931800484648
leaf_count=103 842 229 121 119 26394 138 1462 130 175 102 240 127 189 135 629
internal_value=-4.64991 3.19136 8.82687 12.9383 -5.01799 0.303383 -3.19071 7.13559 -1.01396 -1.82926 -1.05269 0.457751 -2.14416 -2.75175 -4.49614
internal_weight=315.201 14.1327 4.7885 3.56353 301.068 9.34415 33.8637 2.35882 12.6951 10.9234 7.94709 5.62876 3.19908 9.89083 21.1686
internal_count=31135 1396 473 352 29739 923 3345 233 1254 1079 785 556 316 977 2091
is_linear=0
shrinkage=1


Tree=9
num_leaves=16
num_cat=0
split_feature=32 14 5 135 134 87 200 24 4 167 12 68 156 58 136
split_gain=1403.22 362.448 358.546 283.931 116.02 103.768 92.8163 78.1028 55.7551 52.5835 38.5754 36.7165 36.6027 36.1445 20.4848
threshold=12.500000000000002 -1508.6320926616247 1822.1105595986903 71.390095452688087 549.82747096572132 44.500000000000007 1.0000000180025095e-35 22.500000000000004 148.50000000000003 1.0000000180025095e-35 221.66308976114402 383.50000000000006 -1.0000000180025095e-35 5423.9850500149287 133.91443975759969
decision_type=2 2 2 8 10 10 10 2 2 10 2 10 10 8 8
left_child=1 2 3 -1 8 -4 7 10 12 -9 11 -2 -3 -11 -14
right_child=6 4 5 -5 -6 -7 -8 9 -10 13 -12 -13 14 -15 -16
leaf_value=28.19316762950292 -2.6486404076021177 3.6489697789364053 -3.3205510879372215 8.6300597918870068 11.043406122782059 9.3124954786348582 3.8657121652390574 -5.2805308884305902 5.4746260040810339 0.0085761697231188094 -3.777302206637891 3.7360605351376757 -3.9588969151085509 -4.0752610546830565 0.68898998245752452
leaf_weight=1.569170020520686 2.0449828654527651 1.0832334980368603 1.3262017592787745 1.4071911796927454 1.022491432726383 1.2755833715200422 1.1642229184508313 271.41579516232014 1.3565727919340131 2.682774551212785 7.7547370046377182 1.6096647307276724 3.6951423063874254 11.277776792645454 1.2755833715200404
leaf_count=155 202 107 131 139 101 126 115 26810 134 265 766 159 365 1114 126
internal_value=-4.58573 5.19447 11.4481 18.9439 1.05791 2.87308 -5.04565 -5.0806 -0.31987 -5.18318 -2.515 0.163458 -1.6183 -3.29048 -2.76616
internal_weight=311.961 14.0112 5.57815 2.97636 8.43302 2.60179 297.95 296.786 7.41053 285.376 11.4094 3.65465 6.05396 13.9606 4.97073
internal_count=30815 1384 551 294 833 257 29431 29316 732 28189 1127 361 598 1379 491
is_linear=0
shrinkage=1


Tree=10
num_leaves=16
num_cat=0
split_feature=96 32 141 81 153 74 140 134 201 43 65 5 87 18 139
split_gain=668.586 780.623 166.023 253.683 171.142 136.263 100.453 80.2769 72.7945 68.5807 44.3413 41.2803 33.727 37.8242 64.7088
threshold=265.84968726516007 12.500000000000002 201.00355849984609 955.00000000000011 -527.38194423191976 12.500000000000002 11.941755983734028 -1.0000000180025095e-35 1.5000000000000002 3658.9537212033815 5.5000000000000009 640.93040345285306 65.500000000000014 7159.6318863746337 516.00613233596005
decision_type=8 2 10 10 8 8 10 10 10 2 10 2 10 2 10
left_child=1 2 3 6 -5 10 7 -1 -7 12 11 -2 13 14 -3
right_child=5 9 -4 4 -6 8 -8 -9 -10 -11 -12 -13 -14 -15 -16
leaf_value=8.0419476469096693 -4.6142353226782804 -2.4442082747428233 -0.038968273713296142 28.647465947561717 10.880405568848911 -5.1878268144273347 13.027760692402961 -2.3118445610647633 3.3073998331150056 -5.2749297064875593 5.8148498927727177 1.7162414208736276 2.8840641087572081 -5.2577216425977902 5.3927202530997027
leaf_weight=1.4679332450032232 2.0652302205562583 6.0539591759443301 1.984240800142288 1.022491432726383 1.1540992408990862 276.07268683612347 1.3970675021409986 1.5286753103137036 1.0123677551746357 9.749101482331751 1.0528624653816221 2.0551065430045128 1.4173148572444905 3.077597975730896 1.2755833715200422
leaf_count=145 204 598 196 101 114 27270 138 151 100 963 104 203 140 304 126
internal_value=-4.58389 -0.106029 7.97745 10.3984 19.2268 -5.06185 6.02494 2.76011 -5.15679 -3.31135 0.0231651 -1.45677 -1.69241 -2.31566 -1.08032
internal_weight=312.386 30.1281 8.55451 6.57027 2.17659 282.258 4.39368 2.99661 277.085 21.5736 5.1732 4.12034 11.8245 10.4071 7.32954
internal_count=30857 2976 845 649 215 27881 434 296 27370 2131 511 407 1168 1028 724
is_linear=0
shrinkage=1


Tree=11
num_leaves=16
num_cat=0
split_feature=24 14 160 32 126 71 66 167 201 153 147 149 136 118 166
split_gain=1436.55 441.163 235.705 272.731 186.945 93.1427 84.9603 66.5977 56.4139 52.5788 43.9697 37.3552 24.904 22.2739 32.8279
threshold=12.500000000000002 -1508.6320926616247 -1.0000000180025095e-35 1.0000000180025095e-35 1190.5000000000002 2807.5000000000005 39.500000000000007 1.0000000180025095e-35 3.5000000000000004 -1.0000000180025095e-35 -1.0000000180025095e-35 -1201.1024613999282 -129.18278346513532 810.16480468286113 1.0000000180025095e-35
decision_type=2 2 10 2 8 10 8 10 10 8 8 8 8 8 10
left_child=1 2 -1 -4 -5 9 7 -2 13 11 -9 -3 -13 14 -8
right_child=6 5 3 4 -6 -7 8 10 -10 -11 -12 12 -14 -15 -16
leaf_value=-1.7089901555169309 -3.996759667884048 -2.1288624174376847 26.215854944367297 -0.38379060558368483 15.549033374784823 8.7561402853330925 -5.0569019070116603 4.1803246600853425 2.1646700673648738 -3.2056316052667153 -3.0819330193231371 0.89461753527247545 7.0273499216207425 -5.5062126933816113 -2.8837887477023934
leaf_weight=1.0326151102781294 30.897463887929916 1.4476858898997305 1.4780569225549687 1.1540992408990862 2.0348591879010201 1.2553360164165495 112.22096566110849 1.7412725389003751 1.0326151102781285 3.78625540435314 1.5995410531759255 1.2350886613130567 1.4274385347962382 143.90807639807463 7.4105319678783408
leaf_count=102 3052 143 146 114 201 124 11085 172 102 374 158 122 141 14215 732
internal_value=-4.54331 5.05605 11.9623 14.9872 9.78287 0.754898 -5.02042 -3.53815 -5.21224 -0.517095 0.703244 1.95954 4.18251 -5.24115 -4.92229
internal_weight=313.662 14.8514 5.69963 4.66702 3.18896 9.1518 298.81 34.2383 264.572 7.89647 3.34081 4.11021 2.66253 263.54 119.631
internal_count=30983 1467 563 461 315 904 29516 3382 26134 780 330 406 263 26032 11817
is_linear=0
shrinkage=1


Tree=12
num_leaves=16
num_cat=0
split_feature=24 60 98 77 10 207 136 16 12 104 52 72 23 153 68
split_gain=1207.55 300.085 529.925 195.625 172.689 117.033 86.3306 62.5748 81.4929 62.913 52.2142 51.4369 37.7884 32.3744 25.5336
threshold=12.500000000000002 10977.300249842941 -1432.0521315950048 1.0000000180025095e-35 5.5000000000000009 1.0000000180025095e-35 666.30177902527532 2493.9166368647484 1785.2173579790121 15322.977800200621 6.5000000000000009 248.07303484533006 13.500000000000002 -1742.4662468352269 322.50000000000006
decision_type=2 8 8 8 2 10 8 2 2 8 10 8 2 10 10
left_child=1 2 4 6 -1 7 14 8 9 11 -6 12 13 -2 -4
right_child=5 -3 3 -5 10 -7 -8 -9 -10 -11 -12 -13 -14 -15 -16
leaf_value=26.790081484256294 -3.6830669998701557 -3.8496971207937145 -4.5590406821968035 15.160800115133302 16.995254920683745 4.4495243394553112 6.8464117274703638 -5.2825232241972131 -4.6791155402555962 -5.5826503783987302 7.3014803629255161 -2.8045096873006887 7.7144332713012913 3.3971983201000002 0.026214108360722577
leaf_weight=1.2047176286578181 1.0528624653816228 3.4622977226972589 1.9538697674870462 1.0123677551746366 1.0629861429333689 1.295830726623534 1.5286753103137005 246.5621667727828 40.95027569681406 2.6726508736610421 1.1642229184508321 3.2395768165588379 1.0528624653816221 1.6704067960381481 3.2092057839035988
leaf_count=119 104 342 193 100 105 128 151 24355 4045 264 115 320 104 165 317
internal_value=-4.59892 4.28148 6.80954 2.20539 17.1451 -5.03323 0.245421 -5.07458 -4.06207 -1.45398 11.9281 0.118841 2.62681 0.659847 -1.70899
internal_weight=313.095 14.5983 11.136 7.70412 3.43193 298.497 6.69175 297.201 50.6386 9.68836 2.22721 7.01571 3.77613 2.72327 5.16308
internal_count=30927 1442 1100 761 339 29485 661 29357 5002 957 220 693 373 269 510
is_linear=0
shrinkage=1


Tree=13
num_leaves=16
num_cat=0
split_feature=66 56 60 66 28 24 145 102 84 12 110 65 68 91 138
split_gain=1236.98 336.856 364.236 394.614 144.061 127.464 97.2077 89.8493 254.787 46.2421 45.644 42.1489 37.1723 49.8652 30.1702
threshold=12.500000000000002 -1449.6645289289438 23467.960000000003 1.0000000180025095e-35 8.0000000000000018 38.500000000000007 -1.0000000180025095e-35 1.0000000180025095e-35 7052.5000000000009 1785.2173579790121 1375.5000000000002 9.5000000000000018 556.50000000000011 1.0000000180025095e-35 1064.0255564839404
decision_type=8 10 10 10 8 2 8 8 8 2 10 10 10 8 10
left_child=1 2 3 -1 -5 6 10 8 11 14 -2 12 -3 -14 -8
right_child=5 7 -4 4 -6 -7 9 -9 -10 -11 -12 -13 13 -15 -16
leaf_value=30.264326280930835 -1.0515340626424985 -3.2930863062649496 -4.7007009526533201 2.9537490016556056 18.124150185637877 -5.2343994919116374 -2.5732745600846432 -5.0734836996178752 16.782255814088636 -4.5838273991617786 8.2463166172892919 5.9255052352112747 7.2585332604544339 -2.2623701873571886 3.0484663318087799
leaf_weight=1.255336016416549 1.1034808531403544 3.0573506206274006 1.133851885795593 1.6400357633829119 1.0123677551746366 264.17736571282148 11.298024147748949 1.9639934450387961 1.0731098204851148 19.022390119731426 1.0123677551746366 1.0427387878298757 1.0123677551746366 1.2047176286578181 1.0427387878298748
leaf_count=124 109 302 112 162 100 26095 1116 194 106 1879 100 103 100 119 103
internal_value=-4.56359 4.48968 11.0788 15.6573 8.74398 -5.00144 -3.16322 0.93843 2.53612 -3.60581 3.3972 0.1161 -1.0324 2.08507 -2.09826
internal_weight=312.052 14.3959 5.04159 3.90774 2.6524 297.656 33.479 9.35428 7.39028 31.3632 2.11585 6.31717 5.27444 2.21709 12.3408
internal_count=30824 1422 498 386 262 29402 3307 924 730 3098 209 624 521 219 1219
is_linear=0
shrinkage=1


Tree=14
num_leaves=16
num_cat=0
split_feature=32 29 53 50 60 26 53 45 74 203 139 11 95 47 71
split_gain=1457.4 277.072 178.623 255.942 182.896 185.565 149.501 145.044 114.688 56.9007 55.6371 39.8448 36.4475 30.0431 43.4346
threshold=12.500000000000002 2820.5000000000005 -100.12933009806798 895.01917713736509 19309.244917000953 inf -5888.6249999999991 47.500000000000007 31.100000000000005 5.0000000000000009 1421.1591179334923 -1169.3083084141037 -1.0000000180025095e-35 1186.822315298388 5610.5000000000009
decision_type=2 8 10 10 10 8 8 8 8 10 10 2 8 10 8
left_child=1 6 3 7 5 -4 -1 -3 10 -10 12 -8 13 -2 -15
right_child=8 2 4 -5 -6 -7 11 -9 9 -11 -12 -13 -14 14 -16
leaf_value=11.746882197651423 -3.7138710546571043 12.817235680289798 1.4729450275645375 2.7258077632028863 -5.5826503783987302 20.099716899307595 4.2951831899498591 29.031980074788631 -5.2214664362873693 1.4729450275645517 2.6488775952250991 -1.8735824377144743 -4.3421061311963953 -1.6436369922474512 5.7063022711425129
leaf_weight=1.1540992408990858 3.7457606941461545 1.0326151102781302 1.1338518857955948 1.0832334980368612 1.1034808531403539 1.0123677551746366 1.3160780817270277 1.1844702735543249 274.09856971353292 1.2755833715200413 1.7007778286933888 5.1225808411836598 12.897565200924879 3.3003188818693161 1.0629861429333685
leaf_count=114 370 102 112 107 109 100 130 117 27075 126 168 506 1274 326 105
internal_value=-4.54173 5.37701 10.1425 15.3244 4.87985 10.2592 1.26598 21.4799 -5.01234 -5.19046 -2.85226 -0.612671 -3.29766 -1.63645 0.146951
internal_weight=312.224 14.1428 6.55002 3.30032 3.2497 2.14622 7.59276 2.21709 298.082 275.374 22.7074 6.43866 21.0066 8.10907 4.36331
internal_count=30841 1397 647 326 321 212 750 219 29444 27201 2243 636 2075 801 431
is_linear=0
shrinkage=1


Tree=15
num_leaves=16
num_cat=0
split_feature=96 24 60 122 53 116 29 166 9 32 172 138 108 14 113
split_gain=641.008 745.351 289.125 510.56 231.64 86.5971 85.3187 84.2298 76.3044 86.3246 120.599 153.814 38.5408 37.3482 23.7145
threshold=265.84968726516007 12.500000000000002 19309.244917000953 17.500000000000004 -7594.9971440996187 13.100000000000001 1173.5000000000002 1.0000000180025095e-35 87.41158104398302 60.500000000000007 -5.4999999999999991 1.0000000180025095e-35 22.500000000000004 255.13930248069002 2093.5000000000005
decision_type=8 2 8 10 10 8 8 10 2 2 8 10 10 2 8
left_child=1 2 3 4 -1 13 -6 12 9 10 11 -7 14 -2 -3
right_child=5 7 -4 -5 6 8 -8 -9 -10 -11 -12 -13 -14 -15 -16
leaf_value=17.75081474368455 3.3971983200999931 -3.4697448022813884 -3.423561073841662 26.901500282613412 -2.1765008720716308 -1.6088092876837807 7.016627132249984 3.9545682393171555 -5.270845029013385 -5.0586273774253305 -3.2881478073537611 13.448038147777449 -4.5759921803504664 -2.5958324527641663 1.591195229899129
leaf_weight=1.2857070490717886 1.3363254368305195 1.8931277021765773 1.8526329919695861 1.5084279552102087 2.0551065430045137 1.7615198940038683 1.984240800142288 1.4679332450032223 250.15607230365276 15.266505748033522 8.716486372053625 1.1034808531403539 15.894173756241797 4.6872627064585686 1.8121382817625997
leaf_count=127 132 187 183 149 203 174 196 145 24710 1508 861 109 1570 463 179
internal_value=-4.55318 -0.137911 7.65687 10.6609 6.06042 -5.01733 2.33942 -3.35171 -5.0989 -3.49683 -1.4381 4.19047 -3.89893 -1.26629 -0.994586
internal_weight=312.781 29.7535 8.68612 6.83348 5.32505 283.028 4.03935 21.0674 277.004 26.848 11.5815 2.865 19.5994 6.02359 3.70527
internal_count=30896 2939 858 675 526 27957 399 2081 27362 2652 1144 283 1936 595 366
is_linear=0
shrinkage=1


Tree=16
num_leaves=16
num_cat=0
split_feature=24 53 66 113 134 26 16 61 144 160 114 96 102 26 139
split_gain=1291.25 335.474 205.38 160.476 161.155 88.0631 76.8108 101.839 123.743 55.4349 73.3082 38.5148 57.7694 56.7533 48.7347
threshold=12.500000000000002 -222.11985183493599 1.0000000180025095e-35 1321.5000000000002 185.31817961386304 720.50000000000011 2493.9166368647484 1.0000000180025095e-35 -1.0000000180025095e-35 -1.0000000180025095e-35 1.0000000180025095e-35 1041.47591558094 23409.367625000003 473.50000000000006 1.0000000180025095e-35
decision_type=2 8 10 8 10 8 2 8 8 8 8 8 10 10 10
left_child=1 2 -1 -4 -5 -3 7 8 -2 -7 -11 12 13 -10 -15
right_child=6 5 3 4 -6 9 -8 -9 11 10 -12 -13 -14 14 -16
leaf_value=20.026547761764281 8.0106985688699694 -2.782233645104025 -2.4715216954542925 17.967151506405848 2.8403084783326253 -2.2623701873571878 -5.2647468388991472 -5.1430343688522342 -2.7604122160134192 0.84670874892875059 9.9015211611747382 -3.6596457901413797 -5.5826503783987302 0.0085761697231099276 9.410489859273234
leaf_weight=1.6400357633829115 1.1034808531403539 3.9279868900775883 1.2857070490717886 1.5286753103137019 1.3059544041752813 1.2047176286578176 245.35744914412498 29.571262128651142 1.7716435715556147 1.7109015062451374 1.8728803470730779 15.600587107241159 1.6501594409346578 1.0731098204851153 1.133851885795593
leaf_count=162 109 388 127 151 129 119 24236 2921 175 169 185 1541 163 106 112
internal_value=-4.58181 4.64056 10.5621 6.79498 10.998 0.727232 -5.03095 -3.92575 -2.31392 3.60603 5.57874 -2.85058 -0.608202 1.45499 4.83892
internal_weight=311.738 14.4769 5.76037 4.12034 2.83463 8.71649 297.262 51.9041 22.3328 4.7885 3.58378 21.2294 5.62876 3.97861 2.20696
internal_count=30793 1430 569 407 280 861 29363 5127 2206 473 354 2097 556 393 218
is_linear=0
shrinkage=1


Tree=17
num_leaves=16
num_cat=0
split_feature=74 11 6 10 24 139 116 9 12 139 26 137 14 87 34
split_gain=1050.43 280.013 243.023 270.716 147.859 124.933 56.1955 91.6837 75.7034 58.8595 57.9995 48.6642 28.4562 51.0044 25.1337
threshold=12.500000000000002 -1778.2691078080527 24096.936107530488 5.5000000000000009 38.500000000000007 1019.6384883988832 46.400000000000006 87.41158104398302 221.66308976114402 -1.0000000180025095e-35 402.50000000000006 530.13874519568469 255.13930248069002 38.500000000000007 283.54383147396322
decision_type=8 2 2 2 2 10 10 2 2 10 10 10 2 8 2
left_child=1 2 3 -1 6 12 8 -8 9 -2 -11 -5 13 -3 -6
right_child=4 5 -4 11 14 -7 7 -9 -10 10 -12 -13 -14 -15 -16
leaf_value=27.651182188007748 -3.1616127390976043 6.7646415820370178 -1.1925021257993569 3.307399833114995 -4.8616406288842349 9.731820270203734 8.6642249605655834 -3.9894514157618608 -4.23784211920327 -2.2679411272750469 5.9498456658661221 12.514143945293341 -2.6558848766658141 -1.2087019348495383 -5.4845781626685026
leaf_weight=1.0832334980368608 4.1304604411125183 1.1338518857955917 1.3666964694857595 1.0123677551746371 112.34244979172945 1.3059544041752813 1.0528624653816216 1.2553360164165495 23.051613785326481 1.5084279552102118 1.9943644776940344 1.326201759278774 4.1000894084572792 2.7435166165232658 152.94852045178413
leaf_count=107 408 112 135 100 11097 129 104 124 2277 149 197 131 405 271 15108
internal_value=-4.57419 3.8688 10.0799 14.5822 -4.97249 0.665052 -2.97604 1.7824 -3.33398 -0.604432 2.41097 8.52854 -0.819228 1.12293 -5.22078
internal_weight=312.356 14.0719 4.7885 3.4218 298.284 9.28341 32.9931 2.3082 30.6849 7.63325 3.50279 2.33857 7.97746 3.87737 265.291
internal_count=30854 1390 473 338 29464 917 3259 228 3031 754 346 231 788 383 26205
is_linear=0
shrinkage=1


Tree=18
num_leaves=16
num_cat=0
split_feature=116 14 18 195 32 54 84 102 71 91 88 110 172 189 19
split_gain=1253.47 386.171 429.523 411.433 169.993 85.7108 71.3682 124.23 101.32 68.9419 58.3422 56.9657 46.9805 53.6974 36.9694
threshold=13.100000000000001 -1508.6320926616247 10869.749053232781 -1.0000000180025095e-35 30.500000000000004 3241.6025242175606 660.50000000000011 1.0000000180025095e-35 7001.5000000000009 367.03711177926999 40.500000000000007 1895.5000000000002 -2.4999999999999996 -17.699999999999999 1.0000000180025095e-35
decision_type=8 2 2 10 2 8 8 10 8 10 10 8 10 8 2
left_child=1 2 3 -1 5 12 -3 8 9 11 -5 -8 13 -2 -6
right_child=4 6 -4 10 14 -7 7 -9 -10 -11 -12 -13 -14 -15 -16
leaf_value=32.005565855140148 7.6396465241151299 -3.5803868172469877 -4.8286172815782269 5.4649266388332487 -4.7618017176279848 -4.3526519455583887 10.45827592917588 -5.5826503783987302 13.105142859017516 -3.3875762520990436 14.050310751238218 0.79014547214874664 -1.9551973730729761 -0.11395359315383491 -5.5022069552398438
leaf_weight=1.1439755633473394 1.2857070490717886 2.9966085553169224 1.326201759278774 1.5387989878654473 115.73388177156448 10.569119364023207 1.1844702735543267 1.518551632761955 1.1237282082438467 1.3666964694857595 1.6299120858311651 1.2553360164165495 7.1675637066364306 2.9257428124547005 161.60426475852728
leaf_count=113 127 296 131 152 11432 1044 117 150 111 135 161 124 708 289 15963
internal_value=-4.53293 4.36148 10.91 15.7498 -4.98122 -2.30219 0.452039 2.32582 4.76169 2.2986 9.88105 5.4838 -0.397667 2.25313 -5.19323
internal_weight=314.371 15.0843 5.63889 4.31269 299.286 21.9481 9.44539 6.44878 4.93023 3.8065 3.16871 2.43981 11.379 4.21145 277.338
internal_count=31053 1490 557 426 29563 2168 933 637 487 376 313 241 1124 416 27395
is_linear=0
shrinkage=1


Tree=19
num_leaves=16
num_cat=0
split_feature=93 24 18 185 24 137 147 57 139 54 201 16 21 14 8
split_gain=474.833 681.118 305.604 632.236 201.727 178.758 72.1901 45.4038 117.376 83.615 40.8645 39.6863 54.1533 46.4373 95.2495
threshold=68.717328167835021 12.500000000000002 10869.749053232781 -1164.3173378729996 22.500000000000004 530.13874519568469 -325.20273769837996 3.5000000000000004 704.74615023690319 247.90784422232002 2.5000000000000004 2493.9166368647484 1.0000000180025095e-35 255.13930248069002 277.15223866686807
decision_type=8 2 2 10 2 10 8 10 10 10 10 2 2 2 2
left_child=1 2 3 6 7 -5 -1 8 -2 -9 -6 12 -3 14 -14
right_child=4 11 -4 5 10 -7 -8 9 -10 -11 -12 -13 13 -15 -16
leaf_value=29.900829430232118 -3.1159950037827366 -4.3254715606089098 -4.5798246354191781 -1.0095792819410465 -5.2429724702711997 11.673805855463264 18.162141853208443 8.7697573704838376 8.2463166172893025 -3.6070836647290125 0.94044726107675736 -4.7881865525261897 7.2529525635231638 -4.2478080042975694 -4.0270860369265113
leaf_weight=1.0427387878298757 8.9189599230885488 5.5680226534605044 1.9943644776940344 3.2800715267658216 264.95688888430595 1.6805304735898969 1.0528624653816225 1.1844702735543244 1.0123677551746357 1.0123677551746366 1.0731098204851139 15.10452690720558 1.7918909266591074 1.4983042776584623 1.2857070490717886
leaf_count=103 881 550 197 324 26172 166 104 117 100 100 106 1492 177 148 127
internal_value=-4.60332 -1.09273 6.3503 9.43959 -5.0362 3.28724 24.0031 -1.04775 -1.95776 3.06614 -5.21803 -3.76076 -2.23089 0.317825 2.54057
internal_weight=312.457 34.299 9.05057 7.0562 278.158 4.9606 2.0956 12.1282 9.93133 2.19684 266.03 25.2485 10.1439 4.5759 3.0776
internal_count=30864 3388 894 697 27476 490 207 1198 981 217 26278 2494 1002 452 304
is_linear=0
shrinkage=1


end of trees

feature_importances:
ctrx_quarter=12
ctrx_quarter_normalizado=12
ctrx_quarter_lag1=11
mcomisiones_delta2=10
mcuentas_saldo=9
ctrx_quarter_normalizado_lag1=9
mcaja_ahorro=8
mprestamos_personales=7
mprestamos_personales_lag1=7
cliente_edad_lag2=6
mrentabilidad_annual_delta1=6
Visa_fechaalta=5
mcuenta_corriente_lag1=5
mcaja_ahorro_lag2=5
mprestamos_personales_lag2=5
ctrx_quarter_normalizado_lag2=5
mcuenta_corriente=4
mtarjeta_visa_consumo=4
Master_fechaalta=4
mpasivos_margen_lag1=4
chomebanking_transacciones_lag1=4
Visa_fechaalta_lag1=4
vm_fechaalta_lag1=4
mcuentas_saldo_lag2=4
ctrx_quarter_lag2=4
mcuentas_saldo_delta2=4
ccomisiones_mantenimiento_delta1=4
ccomisiones_mantenimiento_delta2=4
vm_status04_delta2=4
cliente_antiguedad=3
mrentabilidad=3
mrentabilidad_annual=3
cproductos=3
mcaja_ahorro_lag1=3
mcuentas_saldo_lag1=3
Master_fechaalta_lag1=3
mcomisiones_lag2=3
Master_fechaalta_lag2=3
Visa_fechaalta_lag2=3
mrentabilidad_delta1=3
cproductos_delta2=3
mprestamos_personales_delta1=3
ctrx_quarter_delta1=3
mpasivos_margen=2
cdescubierto_preacordado=2
ctarjeta_visa_transacciones=2
cpayroll_trx=2
Visa_status=2
mpayroll_sobre_edad=2
cliente_edad_lag1=2
cproductos_lag1=2
ctarjeta_visa_transacciones_lag1=2
cliente_antiguedad_lag2=2
mrentabilidad_annual_lag2=2
mpayroll_lag2=2
vm_status04_lag2=2
vm_fechaalta_lag2=2
mrentabilidad_annual_delta2=2
mcomisiones_delta1=2
cproductos_delta1=2
mcuenta_corriente_delta2=2
Visa_mpagominimo_delta1=2
ctrx_quarter_normalizado_delta1=2
ctrx_quarter_normalizado_delta2=2
vm_status05_delta2=2
mcomisiones=1
mactivos_margen=1
mpayroll=1
ccomisiones_mantenimiento=1
chomebanking_transacciones=1
Master_mpagominimo=1
vm_fechaalta=1
vm_mpagominimo=1
cliente_antiguedad_lag1=1
mrentabilidad_lag1=1
mactivos_margen_lag1=1
mtarjeta_visa_consumo_lag1=1
cpayroll_trx_lag1=1
Visa_status_lag1=1
Visa_mpagominimo_lag1=1
vm_status01_lag1=1
vm_status05_lag1=1
mactivos_margen_lag2=1
mpasivos_margen_lag2=1
mcuenta_corriente_lag2=1
mtarjeta_visa_consumo_lag2=1
chomebanking_transacciones_lag2=1
Visa_mpagominimo_lag2=1
mpayroll_sobre_edad_lag2=1
vm_status01_lag2=1
mrentabilidad_delta2=1
mactivos_margen_delta1=1
mactivos_margen_delta2=1
mpasivos_margen_delta2=1
mcuenta_corriente_delta1=1
mcaja_ahorro_delta2=1
mcuentas_saldo_delta1=1
mtarjeta_visa_consumo_delta1=1
ccallcenter_transacciones_delta1=1
ctrx_quarter_delta2=1
Visa_mpagominimo_delta2=1
vm_status01_delta2=1
vm_status04_delta1=1
mv_status07_delta1=1
mv_status07_delta2=1

parameters:
[boosting: rf]
[objective: binary]
[metric: binary_logloss]
[tree_learner: serial]
[device_type: cpu]
[data_sample_strategy: bagging]
[data: ]
[valid: ]
[num_iterations: 20]
[learning_rate: 0.1]
[num_leaves: 16]
[num_threads: 0]
[seed: 0]
[deterministic: 0]
[force_col_wise: 0]
[force_row_wise: 1]
[histogram_pool_size: -1]
[max_depth: -1]
[min_data_in_leaf: 100]
[min_sum_hessian_in_leaf: 0.001]
[bagging_fraction: 0.632121]
[pos_bagging_fraction: 1]
[neg_bagging_fraction: 1]
[bagging_freq: 1]
[bagging_seed: 3]
[bagging_by_query: 0]
[feature_fraction: 1]
[feature_fraction_bynode: 0.2]
[feature_fraction_seed: 2]
[extra_trees: 0]
[extra_seed: 6]
[early_stopping_round: 0]
[early_stopping_min_delta: 0]
[first_metric_only: 1]
[max_delta_step: 0]
[lambda_l1: 0]
[lambda_l2: 0]
[linear_lambda: 0]
[min_gain_to_split: 0]
[drop_rate: 0.1]
[max_drop: 50]
[skip_drop: 0.5]
[xgboost_dart_mode: 0]
[uniform_drop: 0]
[drop_seed: 4]
[top_rate: 0.2]
[other_rate: 0.1]
[min_data_per_group: 100]
[max_cat_threshold: 32]
[cat_l2: 10]
[cat_smooth: 10]
[max_cat_to_onehot: 4]
[top_k: 20]
[monotone_constraints: ]
[monotone_constraints_method: basic]
[monotone_penalty: 0]
[feature_contri: ]
[forcedsplits_filename: ]
[refit_decay_rate: 0.9]
[cegb_tradeoff: 1]
[cegb_penalty_split: 0]
[cegb_penalty_feature_lazy: ]
[cegb_penalty_feature_coupled: ]
[path_smooth: 0]
[interaction_constraints: ]
[verbosity: -100]
[saved_feature_importance_type: 0]
[use_quantized_grad: 0]
[num_grad_quant_bins: 4]
[quant_train_renew_leaf: 0]
[stochastic_rounding: 1]
[linear_tree: 0]
[max_bin: 31]
[max_bin_by_feature: ]
[min_data_in_bin: 3]
[bin_construct_sample_cnt: 200000]
[data_random_seed: 1]
[is_enable_sparse: 1]
[enable_bundle: 1]
[use_missing: 1]
[zero_as_missing: 0]
[feature_pre_filter: 0]
[pre_partition: 0]
[two_round: 0]
[header: 0]
[label_column: ]
[weight_column: ]
[group_column: ]
[ignore_column: ]
[categorical_feature: ]
[forcedbins_filename: ]
[precise_float_parser: 0]
[parser_config_file: ]
[objective_seed: 5]
[num_class: 1]
[is_unbalance: 0]
[scale_pos_weight: 1]
[sigmoid: 1]
[boost_from_average: 1]
[reg_sqrt: 0]
[alpha: 0.9]
[fair_c: 1]
[poisson_max_delta_step: 0.7]
[tweedie_variance_power: 1.5]
[lambdarank_truncation_level: 30]
[lambdarank_norm: 1]
[label_gain: ]
[lambdarank_position_bias_regularization: 0]
[eval_at: ]
[multi_error_top_k: 1]
[auc_mu_weights: ]
[num_machines: 1]
[local_listen_port: 12400]
[time_out: 120]
[machine_list_filename: ]
[machines: ]
[gpu_platform_id: -1]
[gpu_device_id: -1]
[gpu_use_dp: 0]
[num_gpu: 1]

end of parameters
