tree
version=v4
num_class=1
num_tree_per_iteration=1
label_index=0
max_feature_idx=154
objective=binary sigmoid:1
feature_names=numero_de_cliente foto_mes cliente_edad cliente_antiguedad mrentabilidad mrentabilidad_annual mcomisiones mactivos_margen mpasivos_margen cproductos mcaja_ahorro cdescubierto_preacordado mcuentas_saldo ctarjeta_visa_transacciones mtarjeta_visa_consumo mtarjeta_master_consumo mprestamos_personales cpayroll_trx mpayroll ccomisiones_mantenimiento ccallcenter_transacciones chomebanking_transacciones ctrx_quarter Master_fechaalta Master_mpagominimo Visa_fechaalta Visa_mpagominimo mpayroll_sobre_edad ctrx_quarter_normalizado vm_status02 vm_fechaalta vm_mpagominimo cliente_edad_lag1 cliente_antiguedad_lag1 mrentabilidad_lag1 mrentabilidad_annual_lag1 mcomisiones_lag1 mpasivos_margen_lag1 cproductos_lag1 mcuenta_corriente_lag1 mcaja_ahorro_lag1 mcuentas_saldo_lag1 ctarjeta_visa_transacciones_lag1 mtarjeta_visa_consumo_lag1 cpayroll_trx_lag1 ccomisiones_mantenimiento_lag1 chomebanking_transacciones_lag1 ctrx_quarter_lag1 Master_fechaalta_lag1 mpayroll_sobre_edad_lag1 ctrx_quarter_normalizado_lag1 vm_fechaalta_lag1 vm_mpagominimo_lag1 cliente_edad_lag2 cliente_antiguedad_lag2 mrentabilidad_lag2 mrentabilidad_annual_lag2 mcomisiones_lag2 mactivos_margen_lag2 mpasivos_margen_lag2 cproductos_lag2 mcaja_ahorro_lag2 mcuentas_saldo_lag2 ctarjeta_visa_transacciones_lag2 mtarjeta_visa_consumo_lag2 mprestamos_personales_lag2 mpayroll_lag2 ccomisiones_mantenimiento_lag2 ctrx_quarter_lag2 Master_fechaalta_lag2 Visa_fechaalta_lag2 Visa_mpagominimo_lag2 mpayroll_sobre_edad_lag2 ctrx_quarter_normalizado_lag2 vm_fechaalta_lag2 vm_mpagominimo_lag2 mrentabilidad_delta2 mrentabilidad_annual_delta1 mrentabilidad_annual_delta2 mcomisiones_delta1 mcomisiones_delta2 mactivos_margen_delta1 mactivos_margen_delta2 mpasivos_margen_delta1 cproductos_delta1 cproductos_delta2 mcuenta_corriente_delta2 mcaja_ahorro_delta2 mcuentas_saldo_delta1 ctarjeta_visa_transacciones_delta2 mtarjeta_visa_consumo_delta1 mtarjeta_visa_consumo_delta2 mtarjeta_master_consumo_delta2 mpayroll_delta1 mpayroll_delta2 ccomisiones_mantenimiento_delta2 ccallcenter_transacciones_delta2 chomebanking_transacciones_delta1 chomebanking_transacciones_delta2 ctrx_quarter_delta1 ctrx_quarter_delta2 Master_fechaalta_delta1 Master_mpagominimo_delta2 Visa_mpagominimo_delta2 mpayroll_sobre_edad_delta1 mpayroll_sobre_edad_delta2 vm_mpagominimo_delta1 vm_mpagominimo_delta2 rf_002_006 rf_003_006 rf_003_012 rf_005_013 rf_006_005 rf_008_005 rf_012_006 rf_013_007 rf_016_009 rf_018_015 rf_019_015 rf_019_006 rf_020_009 rf_006_011 rf_014_009 rf_009_007 rf_010_004 rf_013_003 rf_014_000 rf_008_000 suma_rf avg_rf mtarjeta_visa_consumo_-_mtarjeta_visa_consumo_delta2 rf_006_005_+_rf_008_005 mpasivos_margen_lag2_-_mpayroll_sobre_edad mpayroll_delta2_+_mcaja_ahorro mcuentas_saldo_+_mcomisiones mpasivos_margen_delta1_-_mpayroll_sobre_edad_lag2 mtarjeta_visa_consumo_+_mpayroll_delta1 rf_013_007_+_rf_020_009 mpasivos_margen_lag1_-_mcaja_ahorro_delta2 rf_006_005_+_rf_005_013 mcaja_ahorro_+_Master_mpagominimo mtarjeta_visa_consumo_lag1_-_mcaja_ahorro mcaja_ahorro_lag2_-_mpayroll rf_013_007_+_rf_002_006 vm_mpagominimo/mpayroll rf_006_005_+_rf_018_015 vm_mpagominimo_lag1_+_mpayroll_sobre_edad_lag1 vm_mpagominimo_-_mcaja_ahorro_lag1 mpayroll_delta1_-_vm_mpagominimo vm_mpagominimo_delta1_+_mpayroll vm_mpagominimo_delta2_-_mpayroll_lag2 vm_mpagominimo_+_mpayroll_lag2 mpayroll_sobre_edad_delta1_+_mcaja_ahorro_lag1 mcomisiones_+_mcaja_ahorro mtarjeta_visa_consumo/mrentabilidad_annual
feature_infos=[29186441:187434871] [202005:202107] [0:92] [1:379] [-150300.5:584652.60308303311] [-789128.97072540724:2800341.713857098] [-21764.014782946251:149752.24021577864] [-121896.23192166579:145945.18775178085] [-45799.274068308907:411464.73329145258] [3:18] [-4175.1382288055001:15938446.762935637] [0:1] [-4319253.6066119587:131846745.92929399] [0:343] [0:1724164.45] [0:2048648.8333866997] [0:2946714.4232708341] [0:55] [-201800.45702275229:39980420.504707031] [0:30] [0:199] [0:2507] [0:2164] [1:7724] [0:2057125.29] [1:11974] [0:1814816.0583078966] [-6726.6819007584099:888453.78899348958] [0:2164] [0:18] [1:11974] [0:2266341.5699999998] [0:92] [1:378] [-150300.5:584652.60308303311] [-759158.88342919992:2800341.713857098] [-36222.742432674262:186141.96514316116] [-45799.274068308907:411464.73329145258] [3:18] [-2888458.1419726396:18753807.153156545] [-4175.1382288055001:15454811.957981905] [-2969246.4689450162:132124740.32791564] [0:351] [0:1724164.45] [0:45] [0:30] [0:2507] [0:2152] [1:7693] [-6726.6819007584099:888453.78899348958] [0:2152] [1:11943] [0:1810783.1846399999] [0:92] [1:377] [-132031.95546462113:407499.94340320106] [-789128.97072540724:2800341.713857098] [-36222.742432674262:186141.96514316116] [-87077.850421359515:122835.80153061177] [-45799.274068308907:264178.54893578263] [3:18] [-4175.1382288055001:13907334.484445756] [-2969246.4689450162:132124740.32791564] [0:325] [0:1454596.3638299999] [0:2440728.8500000001] [-129891.16336942883:39980420.504707031] [0:30] [0:2141] [1:7663] [1:11913] [0:1380377.4679518761] [-4329.705445647628:888453.78899348958] [0:2141] [1:11913] [0:1380377.4679518761] [-223123.64527002492:340065.07308303309] [-272883.41812956391:326169.12541875336] [-518582.68837441003:506797.49482797971] [-185136.29137371155:146463.14994583229] [-185021.32411751905:144032.86200134279] [-158982.55871590957:130962.98376191345] [-141160.22977515386:136750.6215179092] [-147286.18435566995:240743.50386892125] [-6:4] [-7:4] [-6586643.0148530407:12179643.823156545] [-8285782.7016345281:12319526.454163335] [-56202370.791311793:36193244.68096] [-251:252] [-1241104.6294495221:1234482.146898089] [-1240150.7712283665:1256146.9082489] [-1883906.5933866997:1583758.3878941503] [-39980420.504707031:39580054.278208137] [-39980420.504707031:30175182.581700984] [-28:29] [-182:136] [-1170:1406] [-1604:1572] [-458:863] [-678:823] [-4875:1283] [-948537.84753827588:1650298.3942287001] [-855991.0465795995:1814816.0583078966] [-888453.78899348958:879556.76173795864] [-888453.78899348958:478971.15209049184] [-1809370.9352619837:1814559.8210630359] [-1380377.4679518761:1814626.8543435249] [0:1] [0:1] [0:1] [0:1] [0:1] [0:1] [0:1] [0:1] [0:1] [0:1] [0:1] [0:1] [0:1] [0:1] [0:1] [0:1] [0:1] [0:1] [0:1] [0:1] [0:12] [0:0.59999999999999998] [0:1454596.3638299999] [0:2] [-479524.05153358768:264178.54893578263] [-39500949.749247685:30411099.86783627] [-4319253.6066119587:131847755.63887769] [-887423.16763364838:240743.50386892125] [-39496990.661216348:30420668.429460898] [0:2] [-12090582.733556584:8449441.8691018522] [0:2] [-3529.4455185109996:15938446.762935637] [-15908516.921091039:1312041.7588245417] [-30388482.317346573:13907334.484445756] [0:2] [-0.0037292826462069317:inf] [0:2] [-5974.110958386832:1810783.1846399999] [-15447904.222102184:2266341.5699999998] [-40006181.080490068:39551693.502879873] [-1809370.9352619837:40001517.298061647] [-39990580.867429689:1814626.8543435249] [-125350.82759510243:39998620.917312637] [-275845.42204895208:15454811.957981905] [-13405.839508913112:15947175.95559112] [-676341.18181818188:inf]
tree_sizes=3209 3233 3237 3253 3268 3266 3267 3285 3266 3265 3282 3269 3232 3258 3298 3240 3255 3309 3281 3268 3265 3271 3248 3247 3266 3267 3253 3246 3278 3252 3245 3264 3280 3274 3254 3290 3273 3278 3295 3253 3283 3291 3257 3269 3254 3250 3273 3267 3256 3263 3257 3252 3245 3258 3254 3235 3252 3275 3253 3251 3252 3270 3277 3276 3246 3275 3279 3305 3264 3265 3246 3261 3239 3255 3263 3290 3264 3229 3254 3257 3241 3268 3277 3280 3256 3250 3286 3238 3280 3265 3267 3269 3258 3283 3281 3262 3254 3272 3270 3289 3262 3281 3244 3225 3248 3252 3268 3244 3259 3247 3250 3264 3237 3259 3260 3273 3260 3257 3261 3252 3278 3258 3284 3242

Tree=0
num_leaves=29
num_cat=0
split_feature=129 124 17 29 16 11 134 7 39 147 151 22 6 11 95 140 140 6 85 31 10 129 74 50 39 75 84 0
split_gain=7350.29 1754.02 1174.95 1765.21 912.067 1071.76 1038.85 610.966 538.298 441.778 430.964 649.617 344.474 301.657 293.262 291.28 279.429 272.246 256.337 242.397 237.603 218.461 215.355 229.488 199.632 184.605 157.938 150.287
threshold=0.17500000000000002 1.0000000180025095e-35 1.0000000180025095e-35 8.0000000000000018 23245.373341732335 1.0000000180025095e-35 1.0000000180025095e-35 1.0000000180025095e-35 -5696.0724475839988 1.0000000180025095e-35 681.42528106355405 11.500000000000002 680.45134960332905 1.0000000180025095e-35 1.0000000180025095e-35 1557.0703076543386 515.68565025692953 102.07463759520002 -1.0000000180025095e-35 378.91196460023559 246.65672481871101 0.32500000000000001 7011.5000000000009 12.500000000000002 -3622.9676542918746 6498.3305787866002 -1.0000000180025095e-35 77442376.000000015
decision_type=2 10 2 10 2 2 10 10 10 10 8 2 8 2 10 10 8 8 10 2 2 2 8 10 10 8 8 2
left_child=1 2 3 4 5 6 8 14 -1 12 11 -2 -9 17 26 19 -5 -3 25 -16 22 -13 23 27 -15 -14 -7 -20
right_child=10 13 -4 16 -6 7 -8 9 -10 -11 -12 21 18 24 15 -17 -18 -19 20 -21 -22 -23 -24 -25 -26 -27 -28 -29
leaf_value=0.77325595459399477 -2.124177698663047 0.13467920329027461 -4.7018736130149925 0.2554357043380957 -4.5508228409448961 -3.0259386087808604 -3.5148873158375671 -3.8614701225775292 -2.2219939579496111 -4.212986897560576 -4.7740470094465 -4.3589660712881821 -0.96312362227146453 -3.5208940687657231 -1.435829927655663 -4.2144021383991657 -2.112106154525661 -2.2213511653885885 -3.674603918693407 -3.6655989179205051 -3.8573065355309319 -4.6765066316250534 -1.7661701896742206 -4.1099412172051171 -1.7269233771914854 -2.9031755191479993 -4.2781642017384325 -2.4948955334147929
leaf_weight=1.6067952392622831 1.6703408136963833 1.4615482119843362 33.651920632459223 1.5250937864184368 31.337046135216951 1.6067952392622826 7.0263249445706606 13.144855968654158 2.2150171659886819 12.536634041927753 1809.2332835309207 45.652956261299551 1.4252364551648491 2.2240951051935558 1.6249511176720255 2.9321743631735444 1.5704834824427965 1.5886393608525398 2.3057965580373985 1.4161585159599779 6.281933929771184 127.65398109890521 2.0879260171204814 2.8504729103297004 1.6975746313109983 1.6340290568768976 57.708459525369108 6.1366869024932384
leaf_count=177 184 161 3707 168 3452 177 774 1448 244 1381 199300 5029 157 245 179 323 173 175 254 156 692 14062 230 314 187 180 6357 676
internal_value=-4.6835 -3.96286 -4.03312 -3.89156 -3.95006 -3.79889 -2.61575 -3.91179 -0.962708 -3.57637 -4.75599 -4.56929 -3.35386 -2.02162 -4.16045 -3.32842 -0.945693 -1.09242 -3.0602 -2.47417 -3.22525 -4.59286 -2.92852 -3.14342 -2.74434 -1.99935 -4.24424 -2.8171
internal_weight=2183.81 199.597 192.625 158.973 155.877 124.54 10.8481 113.692 3.82181 48.4036 1984.21 174.977 35.8669 6.97186 65.2885 5.97328 3.09558 3.05019 22.7221 3.04111 19.6628 173.307 13.3809 11.293 3.92167 3.05927 59.3153 8.44248
internal_count=240562 21987 21219 17512 17171 13719 1195 12524 421 5332 218575 19275 3951 768 7192 658 341 336 2503 335 2166 19091 1474 1244 432 337 6534 930
is_linear=0
shrinkage=1


Tree=1
num_leaves=29
num_cat=0
split_feature=108 119 8 72 1 21 12 140 48 141 48 146 149 39 77 80 39 35 7 7 58 74 99 140 35 0 28 63
split_gain=1235.57 164.981 142.163 118.975 106.802 111.826 72.1229 69.3455 69.0262 68.6242 67.5588 63.9599 67.7972 114.106 70.5087 57.2907 54.8548 49.2984 44.158 43.3539 49.3232 41.8855 40.8513 39.1695 39.1022 38.8167 37.8737 72.7153
threshold=1.0000000180025095e-35 1.0000000180025095e-35 359.37305480568006 1080.9661241853025 202101.50000000003 18.500000000000004 6177.5927941421851 1.0000000180025095e-35 284.50000000000006 1.0000000180025095e-35 463.50000000000006 3037.9728105958634 -1.0000000180025095e-35 -1262.7969115661997 593.94812795582686 1381.65380452452 -10247.978804123 12083.429280743201 -33.915063266237993 -404.78426007321599 130.96512650820003 2142.5000000000005 -10.499999999999998 1557.0703076543386 26199.324544081112 62563771.000000007 54.500000000000007 16.500000000000004
decision_type=2 2 8 10 2 10 8 10 10 8 10 10 8 10 8 10 8 8 10 10 8 10 10 8 10 2 2 10
left_child=2 23 4 6 16 17 19 8 -4 -10 -5 12 13 -7 21 -14 -1 18 -6 -3 22 -15 -21 26 -18 -24 27 -2
right_child=1 3 7 10 5 11 -8 -9 9 -11 -12 -13 15 14 -16 -17 24 -19 -20 20 -22 -23 25 -25 -26 -27 -28 -29
leaf_value=-0.048657006612476912 0.048525498694438 -0.067608285184187197 0.053217061206190568 0.2871242046655989 0.098255409637326763 0.086371808803270403 -0.035122742841972754 -0.029362167785386899 0.6888686085736937 0.1434063209989454 1.4307011247672023 0.10513609726407573 0.22851375222010401 0.22454597762550424 1.4433231615938455 0.87123491694558863 0.11542432918129102 0.087983861694113125 0.24932317073521329 0.86080512331766068 0.087002869896789986 0.93190719774279596 -0.082710459087256397 -0.10567572871755032 -0.030416007053324184 0.45372776863819192 -0.062976180691488789 0.8002924762494974
leaf_weight=45.397141354158521 15.732296033762397 8.5595451323315483 55.103842412121594 1.8078079428523772 44.408415506593883 3.4195639984682193 81.03501345589757 169.32403629925102 5.8276618421077711 9.2808147277683002 1.4408249715343115 10.30867549125105 16.050574542954571 1.9951745383441437 2.8538138065487137 2.4859238602221003 251.12227437552065 108.33122882060707 92.763882944360375 2.6492705270647994 13.715235492214559 3.7248750822618604 2.8194358469918397 1428.6820298274979 32.191414131782949 8.132185352034865 57.646360416896641 2.2873078715056172
leaf_count=965 1839 897 2568 198 2294 162 8738 15761 247 450 170 912 1082 135 234 173 13563 3785 3307 215 1190 288 256 171534 1765 693 6867 274
internal_value=-0.0260376 -0.0898288 0.0952243 0.0506491 0.126935 0.182558 0.0299845 0.0138023 0.117898 0.353803 0.79432 0.373445 0.464042 0.694845 0.937526 0.314709 0.0784811 0.150804 0.200416 0.177047 0.25371 0.685177 0.421818 -0.101049 0.0988533 0.315625 -0.0136972 0.143951
internal_weight=2479.1 1624.51 854.589 120.159 615.053 286.342 116.911 239.536 70.2123 15.1085 3.24863 40.8386 30.5299 11.9934 8.57386 18.5365 328.711 245.504 137.172 35.8757 27.3161 5.72005 13.6009 1504.35 283.314 10.9516 75.666 18.0196
internal_count=240562 192871 47691 12357 28665 12372 11989 19026 3265 697 368 2986 2074 819 657 1255 16293 9386 5601 3251 2354 423 1164 180514 15328 949 8980 2113
is_linear=0
shrinkage=0.124582


Tree=2
num_leaves=29
num_cat=0
split_feature=108 119 16 144 56 20 149 81 12 11 90 9 43 1 78 57 151 79 140 51 1 47 23 55 3 55 26 65
split_gain=963.932 139.104 118.65 135.177 91.4509 78.2332 77.2958 56.1114 53.9815 62.4024 52.9277 55.1894 52.2773 47.8127 47.0249 57.8704 43.5868 41.3183 36.9884 36.238 35.5739 38.3086 34.8963 33.9132 33.4197 33.2729 32.1823 85.3696
threshold=1.0000000180025095e-35 1.0000000180025095e-35 15231.163383774887 0.41056527733704412 12287.67961100974 1.0000000180025095e-35 -54.690489444553371 166.59106360736752 25571.475436426121 1.0000000180025095e-35 1494.9358646503731 7.5000000000000009 10045.576261050001 202056.50000000003 -799.89889917456628 1.0000000180025095e-35 5613.6163633457627 -1042.8370654085745 1557.0703076543386 2861.5000000000005 202105.50000000003 49.500000000000007 205.50000000000003 -1847.0452691522144 20.500000000000004 960.89771788107316 108.01039261203 15892.323185879832
decision_type=2 2 2 8 8 10 8 8 10 2 8 2 10 2 10 8 10 10 8 8 2 8 8 10 2 8 10 8
left_child=2 18 3 -1 5 13 7 -7 9 19 11 16 14 -5 15 -11 -3 -15 20 -6 -2 -22 -17 -19 -25 -18 27 -24
right_child=1 10 -4 4 8 6 -8 -9 -10 12 -12 -13 -14 17 -16 22 25 23 -20 -21 21 -23 26 24 -26 -27 -28 -29
leaf_value=-0.06922752770133124 -0.048779107435911254 0.13172551891657178 -0.035046045020316614 0.075232974656219073 -0.14232710494787357 1.0334228004368435 0.23001880177091583 0.30260181973170952 -0.031001492432342501 0.57922244098002373 -0.082507468149699878 -0.028576011480496648 -0.028906022786707501 -0.02387589745534819 0.065290838482206792 0.0056635417495247862 0.80113071115082213 -0.020272012926033183 -0.10338131323450662 0.047558602516158059 0.68928822395785594 0.084213989635336869 0.14508216909617716 0.10376720193913049 0.23488270290747759 0.19098500284304515 0.091002935341476784 0.41652562786268232
leaf_weight=72.361337105743587 64.78283657412976 47.973192118573934 130.4546894300729 110.86234889924526 22.588320993818343 3.9870073748752475 15.641468199901285 2.7588798590004444 69.771945678628981 5.5823128912597895 40.22784409346059 36.583345963153988 31.875618021003902 14.721595319919286 78.454468190670013 17.454138143919408 2.815374049358069 10.90773186739534 1287.5883435411379 50.411398001946509 1.9863419104367466 8.9032989861443639 52.804288290441036 38.658556243404746 137.44582280889153 2.7345589525066316 32.795748680830002 27.269523805938661
leaf_count=7911 7704 4108 7603 4785 226 223 642 161 5678 201 4446 3479 2712 551 2278 1205 166 782 171534 618 198 1078 1566 1267 5287 158 2538 1457
internal_value=-0.024719 -0.0866508 0.0750872 0.0931287 0.109356 0.15707 0.382043 0.734537 0.0682677 0.0899639 0.0363107 0.0893568 0.119955 0.140958 0.14209 0.186424 0.169965 0.177078 -0.0984065 -0.0111978 -0.013758 0.194583 0.169599 0.192897 0.2061 0.5005 0.19495 0.237524
internal_weight=2420.4 1493.6 926.807 796.353 723.991 334.983 22.3874 6.74589 389.008 319.236 130.334 90.1065 246.236 312.596 214.36 135.906 53.5231 201.734 1363.26 72.9997 75.6725 10.8896 130.324 187.012 176.104 5.54993 112.87 80.0738
internal_count=240562 192871 47691 40088 32177 13698 1026 384 18479 12801 12357 7911 11957 12672 9245 6967 4432 7887 180514 844 8980 1276 6766 7336 6554 324 5561 3023
is_linear=0
shrinkage=0.124582


Tree=3
num_leaves=29
num_cat=0
split_feature=108 119 17 16 12 61 57 11 128 13 69 41 107 14 10 63 14 56 28 0 46 99 5 140 9 74 57 98
split_gain=763.428 122.438 82.8046 89.1378 61.2982 58.9075 92.6501 56.4066 54.0707 43.0394 40.5083 41.225 53.781 37.9008 36.0958 35.0454 55.3162 34.1549 57.6844 39.6616 33.8634 32.5602 33.09 30.3132 28.6506 27.4627 33.1208 27.2699
threshold=1.0000000180025095e-35 1.0000000180025095e-35 1.0000000180025095e-35 15231.163383774887 25571.475436426121 1.0000000180025095e-35 532.63473384028214 1.0000000180025095e-35 2.5000000000000004 4.5000000000000009 278.50000000000006 -1.0000000180025095e-35 -1.0000000180025095e-35 6360.4880887460013 927.5896575870421 2.5000000000000004 1139.8686538516597 12287.67961100974 54.500000000000007 118194506.00000001 15.500000000000002 1.5000000000000002 3739.3102437337143 2882.6641158182106 7.5000000000000009 1174.5000000000002 197.60029664778003 -1.4999999999999998
decision_type=2 2 2 2 10 10 8 2 2 8 8 10 10 10 2 10 10 8 2 2 10 10 10 8 2 10 8 10
left_child=2 14 3 4 5 7 10 8 -1 15 -7 -12 20 -8 17 24 -17 18 19 21 -13 22 -2 -22 25 -3 27 -27
right_child=1 9 -4 -5 -6 6 13 -9 -10 -11 11 12 -14 -15 -16 16 -18 -19 -20 -21 23 -23 -24 -25 -26 26 -28 -29
leaf_value=-0.072794778190607784 -0.026782103518076757 0.018625663356082098 -0.061678680693270385 -0.030156329896965574 -0.0017056418826163309 0.065035627530791326 0.11203732796281327 0.09374632683654982 0.15272296802466143 -0.079393921420403607 0.12749010017097276 0.29328259250652217 0.22361864262506528 -0.0233523259533257 -0.10169408652282916 0.65244222205332891 0.11563018067650938 -0.083544654824383058 -0.02634012803205843 -0.022651500290917385 0.79384130589338953 0.80015685593104469 0.68736655609548358 0.41362782793315706 -0.072262864684954992 0.74814937380609958 0.1118745075396687 0.1752486395866657
leaf_weight=69.143727412447333 2.5052222134545428 32.989425893407315 79.499907081946731 117.91781880706549 107.10811515618116 23.920072730630636 121.54380929702893 285.52278384519741 21.673406667541713 40.189514856319875 34.424226434435695 12.730295999906959 59.464850261807442 43.604411057662219 1143.6670539947227 3.8336698524653938 13.369300555903463 56.090802237857133 27.631573374383152 3.6147306002676487 5.725503138266502 2.9582352666184306 1.6838482278399167 7.5410819128155708 24.677460018545389 2.7008531359024346 16.002843352500353 2.4678336121141911
leaf_count=495 232 2469 9203 6552 8086 1105 3879 9965 276 4481 1110 593 2179 3655 168472 267 1192 7304 3722 370 205 267 147 388 2430 155 1209 154
internal_value=-0.0231669 -0.0832458 0.0602537 0.0709022 0.0859408 0.0996395 0.139953 0.0665447 -0.0189752 0.0288551 0.213063 0.242598 0.288964 0.0762901 -0.0955801 0.0741531 0.235258 -0.021574 0.0689615 0.313649 0.438434 0.483732 0.260279 0.577718 0.038999 0.0896935 0.200431 0.474613
internal_weight=2364.2 1374.38 989.82 910.32 792.402 685.294 308.954 376.34 90.8171 136.231 143.806 119.886 85.4617 165.148 1238.15 96.0414 17.203 94.4844 38.3936 10.762 25.9969 7.14731 4.18907 13.2666 78.8384 54.161 21.1715 5.16869
internal_count=240562 192871 47691 38488 31936 23850 13114 10736 771 12357 5580 4475 3365 7534 180514 7876 1459 12042 4738 1016 1186 646 379 593 6417 3987 1518 309
is_linear=0
shrinkage=0.124582


Tree=4
num_leaves=29
num_cat=0
split_feature=108 119 18 29 128 21 151 56 12 43 134 134 78 138 7 20 12 32 9 23 88 7 153 51 32 102 28 153
split_gain=614.876 107.175 59.0288 52.7142 50.5916 43.0111 40.7616 55.8929 52.1687 56.5476 44.2747 40.3515 38.2551 36.4165 34.636 34.5199 33.2115 32.9531 30.0149 26.3506 24.9035 29.6231 24.4703 33.0347 24.4118 39.589 36.0867 36.9676
threshold=1.0000000180025095e-35 1.0000000180025095e-35 1.0000000180025095e-35 8.0000000000000018 1.0000000180025095e-35 9.5000000000000018 7873.0928532979087 12287.67961100974 287.07217450113853 6332.5303448770328 -1717.6630462633718 -1717.6630462633718 834.52818262861547 1.0000000180025095e-35 -867.37008106209134 1.0000000180025095e-35 40803.972596240063 45.500000000000007 7.5000000000000009 2751.5000000000005 -1.0000000180025095e-35 -155.33953699097847 2963.6059873948066 675.50000000000011 38.500000000000007 -79.478817999569415 114.50000000000001 4066.37771463545
decision_type=2 2 2 10 2 8 8 8 8 8 10 8 10 10 10 10 10 10 2 8 10 10 10 10 8 8 2 8
left_child=2 6 3 4 5 15 7 8 9 10 -2 -7 20 22 -3 -1 17 -14 24 -15 21 -6 23 -13 26 -26 27 -16
right_child=1 14 -4 -5 12 11 -8 -9 -10 -11 -12 13 16 19 18 -17 -18 -19 -20 -21 -22 -23 -24 -25 25 -27 -28 -29
leaf_value=0.077079020468044476 0.16705761974838046 -0.10686634465943734 -0.057466449798436493 -0.049760973239057017 0.00069511299183175248 -0.05414339534521416 -0.10540906361258064 -0.089703916997057209 -0.028912014811549421 0.1187493116675392 1.1574247013398602 0.1017666821633343 0.059371898431992892 0.29622144362895791 0.47596223058640635 0.39413984161728566 -0.038103601476926263 0.16540983876145152 -0.034813369673382437 0.65455902125633425 -0.020200299240047528 0.076739342096187185 -0.05334779667827854 0.38238750508441521 0.57279930338991125 0.024840541527809425 -0.056113246966438136 0.12305287872014814
leaf_weight=183.40710859559476 1.276452135294676 26.266249719075859 74.691935837268829 66.284334689378738 135.86732660094276 7.5101660806685686 873.75862243771553 170.84060032339767 59.35262299189344 21.858872476499528 1.5530139664188052 13.754402814432984 94.084753920789808 8.7319304253905976 8.6114697949960828 5.4891219176352015 26.716400480829179 88.061766483820975 40.505982434377074 5.0139634190127262 124.82481734640896 191.67197797773406 5.554643800482153 12.363387505523859 2.1374750984832644 48.027993845753372 6.3940995880402616 9.9066443098709023
leaf_count=5617 158 3091 9186 514 8287 186 141373 26985 9257 2560 181 378 2693 278 332 154 2115 3203 4166 167 6598 7733 195 387 169 3651 337 611
internal_value=-0.021585 -0.079794 0.0492502 0.0574732 0.0653443 0.114104 -0.0926218 -0.0487858 0.0343935 0.186585 0.710642 0.213362 0.0475117 0.257595 0.0222717 0.0862925 0.0916117 0.110638 0.0516182 0.426929 0.0271501 0.0451953 0.184104 0.234604 0.0982498 0.0481882 0.199058 0.287166
internal_weight=2314.52 1270.49 1044.03 969.336 903.052 241.825 1128.64 254.882 84.041 24.6883 2.82947 52.9285 661.227 45.4183 141.85 188.896 208.863 182.147 115.584 13.7459 452.364 327.539 31.6724 26.1178 75.0777 50.1655 24.9122 18.5181
internal_count=240562 192871 47691 38505 37991 7362 180514 39141 12156 2899 339 1591 30629 1405 12357 5771 8011 5896 9266 445 22618 16020 960 765 5100 3820 1280 943
is_linear=0
shrinkage=0.124582


Tree=5
num_leaves=29
num_cat=0
split_feature=108 149 14 16 12 62 56 149 56 3 47 98 46 20 30 35 3 38 133 138 29 58 85 151 83 86 40 99
split_gain=499.603 97.4523 86.9592 48.6118 51.8246 48.0417 43.6385 37.8315 33.5844 30.4994 38.5363 32.1451 31.0336 27.0627 25.1269 24.4606 24.2141 24.1424 23.8378 22.3456 20.3691 21.1471 32.996 20.3626 19.8971 20.8173 19.8719 19.2472
threshold=1.0000000180025095e-35 9866.9002284154176 8832.0094926649417 11449.868873236856 6177.5927941421851 1.0000000180025095e-35 10691.182334324361 120.43377831451848 12287.67961100974 77.500000000000014 67.500000000000014 -10.499999999999998 15.500000000000002 1.0000000180025095e-35 1.0000000180025095e-35 26199.324544081112 39.500000000000007 4.5000000000000009 4381.2635478376351 1128.8293056771402 8.0000000000000018 1654.31573 -1.0000000180025095e-35 5613.6163633457627 -1.0000000180025095e-35 -2956.8048763825841 3266.1059019734466 -2.4999999999999996
decision_type=2 8 8 2 8 10 8 8 8 2 10 10 10 10 10 10 2 10 8 8 10 10 8 10 10 8 10 10
left_child=3 2 6 4 5 15 9 14 26 10 -2 -12 -13 23 17 16 -1 -6 -14 -15 21 27 -23 -7 -24 -26 -4 -5
right_child=1 -3 8 20 7 13 -8 -9 -10 -11 11 12 18 19 -16 -17 -18 -19 -20 -21 -22 22 24 -25 25 -27 -28 -29
leaf_value=0.013394458888277698 0.075398304677414776 -0.10635202379233298 0.062631744352835597 0.050466647090316057 -0.0080065087646650247 0.11936348922765408 -0.0049999775657091549 -0.057573789944676997 -0.098614443187953843 0.042403074900964302 0.69385696310418776 0.08073547767840672 0.8477202004524178 0.40111540227199222 0.024111607324361718 -0.034348075024141576 0.079374930178379141 0.28796111882189296 0.2167445591126668 0.11342083335679272 -0.13775437086763576 0.43879665089071634 -0.11508183406706191 -0.0088676205319296666 0.32066055070959476 -0.021603814499233306 -0.051479290485293795 -0.072224018285921454
leaf_weight=129.63793783914298 12.846728092990817 690.61615990940481 35.5974504170008 28.85632276814431 6.8303155517205623 178.32975394465029 107.60572267929092 94.390091211535037 219.06719636451453 28.3293596515432 3.6344473566859952 5.8820251338183862 1.9085565400309858 9.1785378321073932 181.94016154203564 51.118279249407351 258.39910871116444 11.445908666588364 1.8111618789844217 7.71014789445326 22.178130833432078 3.7318013007752597 8.0583514147438162 21.542045179288834 5.2938072201795876 5.7581957783550006 70.787904302589595 63.551195792388171
leaf_count=3430 906 123719 4248 2443 152 5678 11337 10153 37659 2368 286 393 117 250 10163 1023 6662 288 185 252 272 255 514 1772 164 363 11653 3857
internal_value=-0.0200335 -0.0762484 -0.0335995 0.0408387 0.050852 0.0703478 0.0409769 0.00744642 -0.0707254 0.131901 0.229107 0.378293 0.258846 0.118339 0.0380996 0.0466601 0.0573317 0.17735 0.540493 0.269775 -0.0284188 -0.0073787 0.0999576 0.105543 0.0337904 0.142338 -0.0132968 -0.0339111
internal_weight=2266.04 1178.09 487.471 1087.95 950.522 655.916 162.018 294.606 325.453 54.4123 26.0829 13.2362 9.60174 216.76 200.216 439.155 388.037 18.2762 3.71972 16.8887 137.428 115.25 22.8422 199.872 19.1104 11.052 106.385 92.4075
internal_count=240562 192871 69152 47691 39823 19067 15592 20756 53560 4255 1887 981 695 7952 10603 11115 10092 440 302 502 7868 7596 1296 7450 1041 527 15901 6300
is_linear=0
shrinkage=0.124582


Tree=6
num_leaves=29
num_cat=0
split_feature=17 128 16 1 56 19 7 85 68 65 13 96 1 128 9 37 0 29 80 146 13 90 86 65 16 62 148 83
split_gain=395.531 168.517 55.108 47.1917 46.9892 35.8945 33.9037 39.5404 48.0033 33.8971 32.7241 29.5574 29.523 88.5223 28.2838 32.5911 55.497 27.6451 23.1964 23.938 23.689 28.509 33.3947 23.4835 22.7828 21.5559 26.6518 20.0976
threshold=1.0000000180025095e-35 7.5000000000000009 11449.868873236856 202056.50000000003 10691.182334324361 1.0000000180025095e-35 -1184.6283264961248 -1.0000000180025095e-35 97.500000000000014 15892.323185879832 4.5000000000000009 1.0000000180025095e-35 202105.50000000003 1.0000000180025095e-35 7.5000000000000009 306.95889171780004 71577286.000000015 10.500000000000002 -1226.0301955300888 5287.4365409435495 10.500000000000002 8728.0281521210327 -119.37714399348094 4718.4490741954023 4554.3616717500008 -3400.4246923174096 -596.31788363863757 -12.229108280977512
decision_type=2 2 2 2 8 2 10 10 10 10 8 10 2 2 2 8 2 10 8 10 10 8 8 10 2 8 8 10
left_child=1 2 3 9 6 17 -3 8 -8 25 -6 18 -4 -14 15 16 -7 -2 -5 20 23 22 -22 -20 -25 -1 27 -27
right_child=5 4 12 11 10 14 7 -9 -10 -11 -12 -13 13 -15 -16 -17 -18 -19 19 -21 21 -23 -24 24 -26 26 -28 -29
leaf_value=-0.041362630180090315 -0.10556497684955943 -0.055328530861995504 -0.059070161578109966 -0.030230351003136317 -0.0037968464452046891 0.93360457673918584 0.09112488444200742 0.046815954169139376 0.98771216767804948 0.31666791634426966 -0.096422583904734988 0.20319507133528805 0.56479572259548594 -0.010854133557301773 -0.092400017521590813 0.0095784407569548466 0.10030962421597893 0.60352592427535812 0.075635365775792093 -0.031473737984718829 0.58878495765509498 -0.13216287993961692 0.15274619686407526 0.34169416402596797 0.066408227642361345 -0.073886179227515142 0.049786015644356113 0.060517784981238054
leaf_weight=72.204980678856373 638.75644778693095 63.840860299766064 112.55857090046629 31.486139270942658 78.468114853370935 1.9929409017786399 2.2727373642846938 75.381972671952099 1.5650573046877978 6.1014642366208127 241.07558505516499 28.744869238696992 4.8818622948601833 27.513150099664927 11.33247191691771 7.3862876296043396 3.2853768058121204 0.85448880353942414 365.42896310053766 27.664329209364951 4.6623826064169407 2.4894950962625435 6.5640887729823572 10.399888386018576 8.4631977980025095 54.388955518137664 301.87473874632269 25.299979124218225
leaf_count=1536 123401 9702 7801 910 9586 207 230 8129 201 125 42863 796 259 782 1953 1287 402 129 9594 1633 272 170 431 166 160 5466 10739 1632
internal_value=-0.0184963 0.0158985 0.042622 0.0535849 -0.04711 -0.0990054 0.0122311 0.0666754 0.456754 0.0249792 -0.0736771 0.080658 -0.0289074 0.0758951 0.0505813 0.178523 0.414938 -0.104618 0.0729532 0.0805855 0.0883744 0.249254 0.333834 0.0826324 0.218183 0.0210571 0.0328691 -0.031215
internal_weight=2216.94 1553.33 1090.73 945.773 462.604 663.608 143.061 79.2198 3.83779 459.87 319.544 485.903 144.954 32.395 23.9971 12.6646 5.27832 639.611 457.158 425.672 398.008 13.716 11.2265 384.292 18.8631 453.769 381.564 79.6889
internal_count=240562 113183 42472 33630 70711 127379 18262 8560 431 19498 52449 14132 8842 1041 3849 1896 609 123530 13336 12426 10793 873 703 9920 326 19373 17837 7098
is_linear=0
shrinkage=0.124582


Tree=7
num_leaves=29
num_cat=0
split_feature=17 128 57 35 19 48 88 59 53 134 84 75 29 135 60 97 75 31 53 29 84 42 64 18 35 91 48 128
split_gain=337.38 129.106 37.2917 35.5116 30.4274 26.3358 25.6724 30.6864 23.9774 22.3109 21.6589 38.3672 20.9854 20.7299 24.2226 22.8767 26.3219 20.3055 20.0765 19.1782 30.7136 18.7111 23.8573 18.6815 40.089 17.8498 16.5923 16.3874
threshold=1.0000000180025095e-35 7.5000000000000009 466.77771610000002 10518.830801261362 1.0000000180025095e-35 284.50000000000006 1390.4167708006537 1.0000000180025095e-35 60.500000000000007 11322.933556756738 -1.0000000180025095e-35 1031.3863972350844 1.0000000180025095e-35 -1895.2219137863842 6.5000000000000009 65.500000000000014 1577.6046466636865 239.04783674214005 74.500000000000014 1.0000000180025095e-35 -1.0000000180025095e-35 1.5000000000000002 12767.97677043628 332225.91891196871 29200.409796477499 1.0000000180025095e-35 1896.5000000000002 3.5000000000000004
decision_type=2 2 8 10 2 10 8 10 10 8 8 8 10 8 10 10 10 2 10 10 10 8 8 2 8 8 10 2
left_child=1 3 13 5 17 27 7 -7 -5 10 11 -4 -9 14 -3 -15 -17 23 26 20 -10 22 -8 -2 -25 -23 -6 -1
right_child=4 2 9 8 18 6 21 12 19 -11 -12 -13 -14 15 -16 16 -18 -19 -20 -21 -22 25 -24 24 -26 -27 -28 -29
leaf_value=0.014492407734541931 -0.064847095233185825 0.63886792398427295 0.90254321233750567 -0.0051569971683385575 0.10086070646561762 0.025532335919868632 0.025858066353092533 0.13935800905944801 0.31819710910536608 -0.084761047364414852 -0.028393950763678417 0.018625682457736534 -0.042250588010880281 0.0013296837411604855 0.087652320118142557 0.80206870544688025 -0.02194054390522086 -0.11466807128083391 0.55809487015824044 -0.096306756747478434 0.05860327314022732 0.036361430934543373 0.25973187159725458 0.90757653353434997 -0.12517840571687008 -0.098883582886773014 -0.10406727541288718 0.083494858330404653
leaf_weight=251.53659079130739 123.62978464039043 1.779596102889627 1.0801163665018978 369.98285751696676 14.205899201333528 60.931417623069137 19.587713184300814 162.62809586711228 7.6843308242969206 229.78614824451506 121.48862807964906 2.5891449800692499 10.513906746171413 79.958973431494087 4.0607526339590549 1.2065755450166755 1.2001586626283822 450.86377557134256 1.0921244299970556 10.732310333754866 89.034377220086753 42.268142958171666 10.345053107012061 0.96500416053458959 1.4751062192954125 23.604453183244914 10.789799656718968 67.822118822019547
leaf_count=5682 24334 151 88 16867 1974 1370 656 5099 202 41350 18498 410 97 9419 478 138 179 98680 132 98 4241 1607 348 200 316 1936 1743 4269
internal_value=-0.0171518 0.0132741 -0.0436935 0.035681 -0.0963582 0.0546479 0.0793361 0.101571 0.00988879 -0.0617094 -0.0193872 0.278823 0.12833 0.0288031 0.255612 0.0127206 0.391163 -0.102309 0.0352448 0.0616955 0.0792281 0.0250119 0.106687 -0.0581096 0.283251 -0.0121016 0.0124002 0.0291464
internal_weight=2172.84 1569.82 443.15 1126.67 603.021 649.237 329.879 234.073 477.434 354.944 125.158 3.66926 173.142 88.2061 5.84035 82.3657 2.40673 576.934 26.0878 107.451 96.7187 95.8054 29.9328 126.07 2.44011 65.8726 24.9957 319.359
internal_count=240562 113183 70711 42472 127379 21064 11113 6566 21408 60346 18996 498 5196 10365 629 9736 317 123530 3849 4541 4443 4547 1004 24850 516 3543 3717 9951
is_linear=0
shrinkage=0.124582


Tree=8
num_leaves=29
num_cat=0
split_feature=18 128 1 16 64 1 65 43 134 65 9 91 2 68 81 1 128 77 23 100 35 134 148 10 12 21 128 84
split_gain=286.001 103.33 45.104 33.9336 28.5763 26.7193 30.1717 26.2614 25.9831 24.0827 22.4606 23.8232 22.4111 33.8133 46.9884 21.8818 38.8141 21.6868 38.2446 40.5979 24.2517 20.5292 36.2495 24.8439 29.8458 24.9176 23.0332 32.9143
threshold=14503.453491436479 7.5000000000000009 202101.50000000003 15231.163383774887 7533.1716795485709 202056.50000000003 29338.48698759648 12796.672550718284 4722.9460408434252 11987.050264797283 5.5000000000000009 -8092.567894616458 38.500000000000007 73.500000000000014 -68.796394727064481 202105.50000000003 1.0000000180025095e-35 1.0000000180025095e-35 470.50000000000006 1.0000000180025095e-35 -7161.9265926360686 -1717.6630462633718 -3025.0393358087631 3095.25929697736 1.0000000180025095e-35 1.0000000180025095e-35 2.5000000000000004 -1.0000000180025095e-35
decision_type=2 2 2 2 8 2 10 10 10 8 2 8 2 10 10 2 2 10 10 8 8 8 10 2 8 8 2 10
left_child=1 3 -3 5 12 6 7 21 9 17 11 -2 13 -4 -15 -5 -17 -6 19 -19 -20 22 26 25 -25 -23 -1 -28
right_child=10 2 4 15 8 -7 -8 -9 -10 -11 -12 -13 -14 14 -16 16 -18 18 20 -21 -22 23 -24 24 -26 -27 27 -29
leaf_value=0.049189607945653475 0.74392648003665052 -0.077058897788445296 0.024048831050011724 -0.056657119953367349 0.0083092062290599979 0.05587680994629457 0.3752929484689102 -0.075530688939316123 -0.056546145287923399 -0.11372621645934651 -0.10141743833198012 0.010840919439250273 0.049124884422346735 -0.04223873251075734 0.83249355860367902 0.32515397785728167 -0.0081113453553022345 0.97641291930498197 0.47854198060060532 0.1705399481046522 0.03480542785431754 0.014537971229840558 -0.05456643738407823 0.30783273222456237 -0.022872817352319483 0.10089246782574042 0.59397224658958347 -0.02005494610112946
leaf_weight=18.505484808702025 0.71637195674702525 245.38625891739503 4.1129300612956268 105.15516179567203 19.490818773861974 547.5311134387739 3.5986929442733517 46.777886606287211 104.69478268083185 10.438703620806335 498.64575682254508 17.385371456854049 33.343147926963866 1.4651256361976264 2.727484910748899 6.7751022982411078 27.199195739813149 1.8041462213732327 2.2638983717188239 2.0991412517614667 12.285190277267246 90.550562350545079 97.856190191581845 4.4157960955053568 103.77625692915171 121.38191100163385 3.2511138217523721 2.3231506613083148
leaf_count=281 128 42813 399 8064 2853 15266 61 4962 19500 1766 117947 3546 3923 159 287 252 820 165 272 250 1412 2652 1503 164 6777 3936 192 212
internal_value=-0.015772 0.00998118 -0.0415311 0.0292087 0.0032398 0.036939 0.0158824 0.0132366 -0.0216542 0.0538495 -0.0964687 0.0398526 0.0947357 0.277843 0.526815 -0.0285738 0.0583479 0.0999519 0.196752 0.543024 0.103853 0.0226297 -0.0208708 0.0391992 -0.00937526 0.0639965 0.116063 0.338068
internal_weight=2135.96 1619.21 440.112 1179.1 194.725 1039.97 492.437 488.838 153.077 48.3819 516.748 18.1017 41.6487 8.30554 4.19261 139.129 33.9743 37.9432 18.4524 3.90329 14.5491 442.06 121.936 320.125 108.192 211.932 24.0797 5.57426
internal_count=240562 118941 73799 45142 30986 36006 20740 20679 26218 6718 121621 3674 4768 845 446 9136 1072 4952 2099 415 1684 15717 2188 13529 6941 6588 685 404
is_linear=0
shrinkage=0.124582


Tree=9
num_leaves=29
num_cat=0
split_feature=17 14 35 16 31 34 41 98 5 100 70 12 41 103 81 51 62 28 63 12 85 98 37 79 132 65 42 36
split_gain=245.29 83.5276 57.424 35.8361 29.303 28.6482 29.0448 24.9487 24.355 24.2762 42.1022 24.8372 36.5606 24.4962 23.4085 23.2391 22.7121 22.4677 20.3032 19.8263 20.3949 19.6847 19.1091 24.7222 17.5522 17.5858 18.5085 18.0812
threshold=1.0000000180025095e-35 7599.9257197553552 12083.429280743201 11449.868873236856 239.04783674214005 1300.7523930215 -1.0000000180025095e-35 1.0000000180025095e-35 18930.247285212143 -5.4999999999999991 5302.5000000000009 1347.6984736000002 19720.045583800002 269.31437273711242 217.41960349611 4040.5000000000005 14380.196814809837 42.500000000000007 2.5000000000000004 -1446.0175290003997 -1.0000000180025095e-35 51.500000000000007 262.04760813976753 1304.4668484716422 1.0000000180025095e-35 4718.4490741954023 9.5000000000000018 463.31859803908907
decision_type=2 8 8 2 2 10 10 10 10 10 10 10 8 10 8 8 10 2 10 10 8 10 8 10 8 10 10 10
left_child=1 3 5 7 22 -3 14 8 24 10 19 12 -11 -13 -7 -10 -15 -4 -12 -9 -21 -8 23 -2 -1 26 -26 -27
right_child=4 2 17 -5 -6 6 21 9 15 11 18 13 -14 16 -16 -17 -18 -19 -20 20 -22 -23 -24 -25 25 27 -28 -29
leaf_value=-0.0018324470677538349 0.012780763709551026 -0.0071913611748673015 -0.016503556509879877 -0.03145891614169867 -0.10724055921860412 0.099263840806711481 -0.018438082125585304 -0.020251713724821777 -0.055985713862020295 0.07211776194967634 0.22208565739165279 -0.017373167998022264 0.35044398874690874 0.018362518513973095 0.361852069573594 0.03184828437445112 0.67807768850594874 -0.091240628519645456 0.70033357637717741 0.40911417054619637 0.12381905639214319 0.39773622121922608 -0.07498770011859239 0.58477835485540353 0.044794911794513323 0.30351762265789411 0.28858653477040558 0.054834150014895493
leaf_weight=114.52470944542438 43.118724232073873 210.03530003898777 90.659317436162382 129.34561379789375 383.6282066819258 13.039656738517804 24.590591264888648 12.333213011734186 90.920401259092614 70.911013966426253 2.5746258064173153 66.596151985693723 8.1690125670284015 1.6978409616276615 8.8419519807212072 96.241695230128244 1.5487880150321869 200.50214247219265 2.9637211514636874 4.5879469141364098 25.530649311840538 1.9002795077394683 74.42700504581444 1.2055544173344959 396.86524010822177 8.6448972588405031 4.8929034685716024 9.5514608593657595
leaf_count=1638 8268 20607 7134 7640 101745 797 2922 233 4091 1486 113 3938 254 116 414 4046 186 43544 196 125 1241 234 17251 115 11640 173 249 166
internal_value=-0.0145724 0.0093058 -0.0300314 0.0299361 -0.0905004 0.0127156 0.0991525 0.0385814 0.0278563 0.0778867 0.154944 0.0530551 0.100869 -0.00108259 0.205371 -0.0108201 0.333076 -0.0679697 0.478009 0.112796 0.167278 0.0114155 -0.036421 0.0283382 0.0413998 0.0531896 0.047764 0.172981
internal_weight=2099.85 1597.47 549.569 1047.9 502.379 258.408 48.3725 918.554 721.641 196.913 47.9902 148.923 79.08 69.8428 21.8816 187.162 3.24663 291.161 5.53835 42.4518 30.1186 26.4909 118.751 44.3243 534.479 419.955 401.758 18.1964
internal_count=240562 113183 75652 37531 127379 24974 4367 29891 22003 7888 1908 5980 1740 4240 1211 8137 302 50678 309 1599 1366 3156 25634 8383 13866 12228 11889 339
is_linear=0
shrinkage=0.124582


Tree=10
num_leaves=29
num_cat=0
split_feature=27 139 35 134 31 86 128 84 5 10 146 31 65 134 100 134 11 100 132 42 41 11 76 28 134 37 0 53
split_gain=207.797 68.2048 28.0202 26.8943 24.3348 78.1699 23.58 37.8151 27.3613 36.2634 22.8088 25.0763 22.0016 26.2406 22.1868 21.3747 37.3953 27.9286 23.5973 19.7492 18.0377 22.8987 17.6016 18.7954 25.4959 43.8332 20.0332 23.3034
threshold=315.32646361916369 1.5000000000000002 21321.261515223039 27233.011670055839 239.04783674214005 -17763.122477514578 3.5000000000000004 -1.0000000180025095e-35 28880.745797252861 4400.0512495954872 1087.7347957854538 106.02200519416952 29338.48698759648 456.81639431507296 -23.499999999999996 -1.0000000180025095e-35 1.0000000180025095e-35 4.5000000000000009 1.0000000180025095e-35 9.5000000000000018 14398.096543383852 1.0000000180025095e-35 149.77110835401064 66.500000000000014 456.81639431507296 174.61935113905801 62563771.000000007 52.500000000000007
decision_type=2 10 8 8 2 8 2 10 10 2 8 2 8 10 10 10 2 8 10 8 10 2 10 2 8 10 2 10
left_child=1 3 22 6 5 -2 15 8 10 -10 -8 -12 13 14 -9 16 18 -17 -1 -5 21 -16 -3 24 25 -24 27 -26
right_child=4 2 -4 19 -6 -7 7 12 9 -11 11 -13 -14 -15 20 17 -18 -19 -20 -21 -22 -23 23 -25 26 -27 -28 -29
leaf_value=-0.13078471289733656 1.2533937005595228 -0.051386307278141641 -0.085849791339923209 -0.00044900731702090797 -0.10712118349938766 -0.046673338945978811 0.41463221228891173 0.38954568755553765 0.7112420476752559 0.012931013824663856 0.22667258929466491 -0.081083472000650456 -0.057669397532897002 0.025649236063106085 0.26575676539362153 0.065701153576706181 0.021682631460888821 -0.027654236312323867 -0.017255019996158919 -0.090439712475637771 0.33196974731538842 0.056750518147091325 -0.01388223657657503 -0.0022435104234628921 0.73115779465778485 0.60453651586612078 -0.081186501088859941 0.042423315379894681
leaf_weight=44.110941220074892 0.72294115903787315 88.426240687491372 142.4046796229668 227.29344379180111 327.12887995014898 101.47237419802696 3.8150042491033682 4.3091642889194182 3.2640280411578706 1.7856265660375354 8.4225108630489647 8.0241092592477781 28.653731870697811 140.45129654998891 9.3349189567379636 218.62804242828861 360.04322694335133 64.384647878352553 79.860288084950298 45.41242202767171 4.8405024188105008 63.339281593682244 3.2713647345080972 72.032933692913502 1.1613331458065688 3.8991802667733282 8.2349860866088402 2.2200938700698316
leaf_count=307 167 15162 33555 16545 97666 23790 149 195 248 187 596 650 3025 9733 154 6015 6528 2046 614 6689 272 3443 245 10691 145 290 1114 341
internal_value=-0.013395 0.00683037 -0.0445962 0.0194001 -0.0905431 -0.0374765 0.0285057 0.0597156 0.204848 0.46431 0.140184 0.0765221 0.0450761 0.0583211 0.114403 0.0172657 0.00136289 0.044463 -0.0576507 -0.0154347 0.0991071 0.0835971 -0.0118217 0.0267002 0.137676 0.3224 0.0236503 0.278966
internal_weight=2066.95 1637.62 321.651 1315.97 429.324 102.195 1043.27 276.24 25.3113 5.04965 20.2616 16.4466 250.929 222.275 81.8239 767.027 484.014 283.013 123.971 272.706 77.5147 72.6742 179.246 90.8199 18.787 7.17055 11.6164 3.38143
internal_count=240562 118939 61543 57396 121623 23957 34162 18652 1830 435 1395 1246 16822 13797 4064 15510 7449 8061 921 23234 3869 3597 27988 12826 2135 535 1600 486
is_linear=0
shrinkage=0.124582


Tree=11
num_leaves=29
num_cat=0
split_feature=17 128 19 16 20 52 89 82 118 31 140 65 106 61 86 76 36 86 80 97 70 69 9 4 36 29 146 55
split_gain=177.115 55.1539 31.0134 30.9231 30.0711 23.6058 37.2709 22.2734 21.2946 21.1245 20.4972 20.6662 20.4031 20.2511 18.5626 45.3509 18.463 18.1975 19.1369 17.2607 18.1974 27.2849 15.7407 16.6292 28.0483 15.0666 32.9993 15.9889
threshold=1.0000000180025095e-35 10.500000000000002 1.0000000180025095e-35 11449.868873236856 9.5000000000000018 7725.0202252904937 -2.4999999999999996 16.089298915754004 1.0000000180025095e-35 239.04783674214005 56251.584612674058 15892.323185879832 1.0000000180025095e-35 266.54379135000005 -7536.610708739835 328.97679568875179 150.91577866017852 36.675963335202006 -1226.0301955300888 -18.499999999999996 1886.5000000000002 2745.5000000000005 7.5000000000000009 963.14455064139065 1140.7256139000001 8.0000000000000018 34405.287980970454 2931.2323058396109
decision_type=2 2 2 2 10 10 8 10 2 2 10 10 10 8 8 10 8 10 8 10 10 8 2 10 8 10 10 8
left_child=1 3 9 4 5 6 12 -6 25 14 11 17 19 -12 15 -2 -3 18 -8 20 -1 -22 23 -4 -25 26 27 -5
right_child=2 16 22 8 7 -7 10 -9 -10 -11 13 -13 -14 -15 -16 -17 -18 -19 -20 -21 21 -23 -24 24 -26 -27 -28 -29
leaf_value=0.036868600350041469 -0.12598220902970697 0.097396376024083978 -0.023207150451443566 -0.04231097584999044 0.43987231404987581 -0.053876892568888647 -0.063900929203433515 0.03303787206552506 -0.11592995246974355 -0.10902127066238977 0.42812373122102332 0.16271752348834659 -0.0065332892355842668 -0.063780427001759593 -0.053387856835099237 0.80987581991708268 -0.063853965661423984 -0.014237639318097642 0.032100930476482513 0.11182902027193244 0.66103954142669641 0.20801154018745147 -0.079987078005271064 0.57091306009910725 0.089337735389821912 -0.11969181850887091 0.46017181117670697 0.056592457891327455
leaf_weight=3.4215659429319194 2.031589060556144 11.69851355999708 6.010495919268581 65.571861392818391 4.6262162746861559 63.439839181723073 33.554538743337616 3.8077607953455299 39.07477623783052 296.80639840755612 1.3288338510319591 16.099267646670341 16.669356259750202 57.804962752852589 100.6034886224661 1.3296712031587956 190.22886110772379 191.24225994106382 814.81422513071448 39.510139968246222 3.2693406271282557 5.593943191692234 8.2579415170475823 2.7948178336955598 5.7166528285015366 17.033493168186396 2.430708691943436 41.37823951872997
leaf_count=157 257 1797 839 3678 217 6226 1085 133 6595 98680 70 337 1124 6391 24464 129 43799 7411 28838 1665 148 275 1953 289 768 121 114 3002
internal_value=-0.0123149 0.00641184 -0.084056 0.0150713 0.0217452 0.0201592 0.0241284 0.256195 -0.0355484 -0.0920932 0.0186492 0.0226472 0.113349 -0.0527265 -0.0437656 0.244231 -0.054512 0.0204781 0.0283039 0.151932 0.280908 0.375117 0.0573442 0.135438 0.247467 -0.0107024 0.00627012 -0.00404594
internal_weight=2046.15 1622.6 423.551 1420.67 1255.18 1246.75 1183.31 8.43398 165.489 400.771 1114.84 1055.71 68.4643 59.1338 103.965 3.36126 201.927 1039.61 848.369 51.795 12.2848 8.86328 22.7799 14.522 8.51147 126.414 109.381 106.95
internal_count=240562 113183 127379 67587 54077 53727 47501 350 13510 123530 44132 37671 3369 6461 24850 386 45596 37334 29923 2245 580 423 3849 1896 1057 6915 6794 6680
is_linear=0
shrinkage=0.124582


Tree=12
num_leaves=29
num_cat=0
split_feature=18 12 16 57 22 28 9 6 2 16 77 151 22 4 10 20 29 65 38 21 38 26 21 39 2 8 2 87
split_gain=150.768 47.8383 28.1886 25.2591 27.027 23.1219 21.6207 20.6929 20.2231 34.6797 49.7839 18.718 18.6418 17.8205 19.6538 17.3238 16.6707 16.3902 23.0333 16.0503 18.6412 15.4606 17.7304 19.791 15.7118 24.0624 30.4282 15.2875
threshold=14503.453491436479 25571.475436426121 11449.868873236856 1002.80235041503 1.0000000180025095e-35 48.500000000000007 5.5000000000000009 3340.7729720203133 34.500000000000007 7913.237916573401 -1227.2868466616544 35897.190152002011 84.500000000000014 -597.77380645297183 1910.2307615049167 1.5000000000000002 8.0000000000000018 15892.323185879832 7.5000000000000009 67.500000000000014 7.5000000000000009 1.0000000180025095e-35 7.5000000000000009 -795.71146924814991 64.500000000000014 54.476227521040009 68.500000000000014 -42086.667823874137
decision_type=2 10 2 8 2 2 2 10 2 2 10 10 2 10 2 10 10 10 10 10 8 8 10 8 2 10 2 8
left_child=1 2 7 4 -3 11 8 13 9 10 -2 16 -12 14 -1 17 21 27 -19 -17 -21 22 23 -4 -23 26 -26 -15
right_child=6 3 5 -5 -6 -7 -8 -9 -10 -11 12 -13 -14 15 -16 19 -18 18 -20 20 -22 24 -24 -25 25 -27 -28 -29
leaf_value=0.019033927108351383 1.4900869448436544 0.54792354065089111 0.17467563018844912 -0.069650163016165764 -0.0039282784040841449 -0.10391621982946089 -0.090788718214559222 -0.090125966535479593 -0.025030645827724941 -0.12562092398646643 -0.12560736675580966 0.25502654274571246 0.70324865397673986 0.15057865958236177 -0.065679074284586969 0.066817514542631407 -0.1360904683456787 0.043969707009881565 0.36648526403834492 0.11344669027809019 0.46471459568486478 -0.038202721512026673 0.37274573301526293 -0.10875354172411136 0.55315513843793196 -0.12758668297228096 0.0017502059512102511 0.022600698212789375
leaf_weight=118.70576274604537 0.69414820591919135 1.391886906698345 8.8691827179864031 179.9894444916863 132.48834775318392 49.941984148696065 345.4928598285187 25.141440800856799 12.398678753292186 1.7760089696384964 0.95736632309854297 4.2134985867887726 0.75194284040480852 14.728966686874626 66.219003527192399 43.173829670529813 14.721323265228419 9.9760093472432327 5.2433160354848942 6.4573815432377133 3.6817399126011887 70.877163618803024 3.2405991349369279 6.7216896621976074 3.1163288082461786 3.568720503244549 3.0968177723698318 881.70955903152935
leaf_count=4417 168 34 414 35066 14734 9592 117947 3180 2763 348 204 153 191 992 8709 1623 100 202 241 357 284 4490 275 569 186 339 150 32834
internal_value=-0.0112907 0.00462059 0.0148516 -0.0391694 0.00180905 -0.0328229 -0.08412 0.0216827 0.0548578 0.291853 0.60034 -0.00284166 0.239015 0.0241273 -0.0113006 0.0309166 -0.0123549 0.02688 0.155082 0.0999437 0.241 0.00595387 0.107593 0.0524809 -0.0177759 0.130232 0.278318 0.0247034
internal_weight=2019.35 1657.27 1343.4 313.87 133.88 168.367 362.071 1175.04 16.5781 4.17947 2.40346 118.425 1.70931 1149.9 184.925 964.971 114.212 911.658 15.2193 53.313 10.1391 99.4905 18.8315 15.5909 80.659 9.78187 6.21315 896.439
internal_count=240562 118941 69107 49834 14768 16268 121621 52839 3674 911 563 6676 395 49659 13126 36533 6523 34269 443 2264 641 6423 1258 983 5165 675 336 33826
is_linear=0
shrinkage=0.124582


Tree=13
num_leaves=29
num_cat=0
split_feature=27 1 118 11 64 12 31 92 96 81 81 39 1 88 97 79 54 15 16 39 70 98 136 6 103 1 91 27
split_gain=128.431 42.506 54.725 32.3308 60.3986 27.0376 23.635 20.0018 22.3423 18.4043 22.3542 17.4464 16.826 18.175 19.2114 25.0779 22.2587 15.9156 15.7564 14.5544 14.3548 24.1553 15.1737 14.3525 14.6574 14.4277 14.1619 33.363
threshold=315.32646361916369 202101.50000000003 1.0000000180025095e-35 1.0000000180025095e-35 8757.2031925696811 208722.38409238405 239.04783674214005 591.00717849574107 1.0000000180025095e-35 -68.796394727064481 -12.602781105000501 -29498.419550610048 202106.50000000003 432.75786385881298 42.500000000000007 147.34928934582197 133.50000000000003 3160.4234559038737 73164.385841813215 314.34527323191054 2562.5000000000005 51.500000000000007 5501.2065429067134 151.52940099957453 45.535590307359001 202102.50000000003 -8092.567894616458 5033.8567021209028
decision_type=2 2 2 2 10 10 2 10 10 8 8 8 2 10 10 10 8 10 2 10 10 10 8 10 8 2 8 2
left_child=1 2 17 4 -4 7 11 8 9 -3 23 -2 13 14 -12 16 -16 18 19 -1 -10 22 -22 -11 25 -25 27 -13
right_child=6 5 3 -5 -6 -7 -8 -9 20 10 12 26 -14 -15 15 -17 -18 -19 -20 -21 21 -23 -24 24 -26 -27 -28 -29
leaf_value=0.013490575541063662 0.35820732608325506 -0.0074949438229402962 1.0215683661006623 -0.079808418647644402 -0.070452722234877141 -0.074090486652008389 -0.10093818396474544 -0.050409842462495295 0.061473800999533805 0.2297111126156102 0.031762743868299602 0.03226845867425971 0.091752550936699373 -0.031925830078159585 0.16978802042537525 -0.075885882085715797 0.82661474057000528 -0.10899463290858934 -0.073566435772887448 -0.086115178266831571 0.26684871537559279 0.54860612784933016 0.028150386348274138 0.3692366909303747 -0.012937594932976651 0.10088204004856491 -0.044737669429007844 1.0073433960898199
leaf_weight=598.81597540667281 1.7938837013207376 158.17073878808878 1.1938100822735571 192.68186443950981 2.3017485486343503 40.599264089018106 244.09697509999387 44.766199867241085 28.196771311108023 13.218619317980481 293.54001051117666 3.151599070290104 62.720215415814891 76.991355588659644 1.6483656177297228 1.970425223233178 1.5573113886639474 19.578355690464377 37.387385635403916 23.668531351489946 8.0941658511292189 2.6727835475467137 8.4468172548804468 3.6383079595398184 15.945362848229705 21.39386677229777 85.064976635156199 0.6584104720968752
leaf_count=23282 199 10105 189 41621 240 6423 97666 6237 1006 395 10758 806 3048 5958 132 130 168 1667 2873 1524 191 172 925 148 726 1021 22807 145
internal_value=-0.0103734 0.00382869 -0.0150343 -0.0729964 0.302496 0.0249078 -0.0807633 0.0303175 0.0354935 0.0294783 0.0413497 -0.0264488 0.032019 0.0220471 0.0359581 0.273882 0.488873 0.00170102 0.00498536 0.0097033 0.118062 0.201106 0.144955 0.116832 0.0804187 0.139886 -0.0342128 0.200772
internal_weight=1993.96 1659.2 875.628 196.177 3.49556 783.571 334.766 742.971 698.205 650.795 492.624 90.6689 438.428 375.707 298.716 5.1761 3.20568 679.45 659.872 622.485 47.4105 19.2138 16.541 54.1962 40.9775 25.0322 88.875 3.81001
internal_count=240562 118939 71396 42050 429 47543 121623 41120 34883 32589 22484 23957 20194 17146 11188 430 300 29346 27679 24806 2294 1288 1116 2290 1895 1169 23758 951
is_linear=0
shrinkage=0.124582


Tree=14
num_leaves=29
num_cat=0
split_feature=17 14 35 19 4 31 134 53 29 50 11 76 12 129 138 147 82 82 0 134 7 153 12 6 101 34 38 34
split_gain=108.341 32.5835 33.9986 28.4686 24.377 20.3015 17.8782 25.5972 25.9957 22.8108 27.2605 27.3153 22.4032 20.0603 23.2288 19.8498 22.6776 19.6633 17.6635 16.3276 17.1697 22.4892 16.2312 17.7231 15.1925 14.8336 14.3666 17.4177
threshold=1.0000000180025095e-35 8832.0094926649417 10518.830801261362 1.0000000180025095e-35 963.14455064139065 239.04783674214005 -1717.6630462633718 32.500000000000007 8.0000000000000018 36.500000000000007 1.0000000180025095e-35 235.68587421637412 287.07217450113853 0.12500000000000003 1.0000000180025095e-35 -11818.459892266061 -1.0000000180025095e-35 1.0000000180025095e-35 88767396.000000015 4722.9460408434252 -736.39359046545292 2963.6059873948066 -14610.215067368435 1144.7084717377072 1.0000000180025095e-35 3320.841710650549 7.5000000000000009 7829.5494555463838
decision_type=2 10 8 2 10 2 10 8 10 10 2 10 10 2 8 8 10 10 2 10 10 10 10 8 10 10 10 10
left_child=1 6 4 5 -3 -2 9 -8 12 10 13 22 15 14 -1 16 -9 -14 -17 20 21 -6 23 -12 -25 -24 27 -19
right_child=3 2 -4 -5 19 -7 7 8 -10 -11 11 -13 17 -15 -16 18 -18 26 -20 -21 -22 -23 25 24 -26 -27 -28 -29
leaf_value=-0.18313322802863571 -0.034367804770692671 -0.022481162179817507 -0.065298943538910775 0.0642237717421517 0.58498013852656461 -0.10365821476732291 0.091764187322776081 -0.0051750666915228874 -0.11634673833351926 -0.068229373414317493 0.2839130502948346 -0.030449166201457864 -0.019682786317553401 0.049816932832968223 -0.036590912258015758 0.076141649556327837 0.34692503873041164 0.05317719293588101 0.011471786257243127 -0.0056517545988850771 0.080266975301908697 0.14005807187979752 0.035204078497361582 0.14953114008969359 0.034956571007785771 -0.12895006038126647 -0.024946947931102054 0.33884988489061046
leaf_weight=21.911098744720221 92.994884124025702 127.48540074215271 190.94341250532307 21.706794632831588 2.6161062363535148 223.01689305040054 80.659720790339634 4.7150390222668648 21.787740743020549 75.204607772175223 6.9828260708600283 89.71294826338999 236.87564003653824 27.703553426545113 71.811334977392107 124.19570771721192 7.1357344368007016 102.9281125026755 138.82602852210402 25.43943010084331 30.456451803212985 5.408893188694492 110.40404367842712 28.25543992803432 49.308518903329968 9.2605510372668487 40.337754710111767 3.4227367867715648
leaf_count=141 24850 14886 45112 3849 140 98680 2675 212 146 7282 195 1300 14902 210 553 3177 202 4871 3684 3379 1437 448 2039 668 1761 217 3339 207
internal_value=-0.00955252 0.00372545 -0.0281042 -0.0737877 0.00900064 -0.0832677 0.0134503 0.0254066 0.0175381 -0.00509478 0.00633656 0.0268507 0.0219683 -0.0433201 -0.0708506 0.0491145 0.206836 0.00251469 0.0420081 0.0717887 0.122983 0.2851 0.0520234 0.0938089 0.0766944 0.0225006 0.0383596 0.0623711
internal_weight=1971.51 1633.79 382.35 337.719 191.406 316.012 1251.44 760.884 680.224 490.555 415.35 293.924 658.437 121.426 93.7224 274.873 11.8508 383.564 263.022 63.9209 38.4815 8.025 204.211 84.5468 77.564 119.665 146.689 106.351
internal_count=240562 113183 65402 127379 20290 123530 47781 33415 30740 14366 7084 6180 30594 904 694 7275 414 23319 6861 5404 2025 588 4880 2624 2429 2256 8417 5078
is_linear=0
shrinkage=0.124582


Tree=15
num_leaves=29
num_cat=0
split_feature=27 12 57 32 41 31 16 63 7 11 82 87 23 96 82 7 83 98 80 2 36 59 3 65 77 26 24 74
split_gain=90.8103 29.4346 22.2926 21.3611 28.7536 21.3431 18.4593 21.4343 25.3334 27.6907 22.1586 20.7836 19.8682 18.2125 18.9047 15.6357 15.7774 15.2933 22.944 15.9415 15.2159 15.0176 16.2696 31.4386 14.5992 21.5592 14.5309 17.6599
threshold=315.32646361916369 49869.691498335516 1144.7428444852321 79.500000000000014 -1.0000000180025095e-35 239.04783674214005 37456.675269912135 1.0000000180025095e-35 1587.9404460657283 1.0000000180025095e-35 187.70252747976858 -42086.667823874137 580.50000000000011 -1.4999999999999998 -96.969407682295426 -3290.9032209224392 817.29590352309117 1.0000000180025095e-35 -142.84781708680796 38.500000000000007 529.06006000931018 19.754269930073004 107.50000000000001 86468.972112365605 6397.7857873236799 108.01039261203 200.16115227102753 1733.5000000000002
decision_type=2 10 8 10 8 2 2 8 10 2 10 8 10 10 10 8 10 10 10 2 10 10 2 8 10 8 8 10
left_child=1 3 -3 6 -5 24 11 8 -8 -10 -11 12 -1 -14 -15 21 -17 19 -19 -16 -6 22 -13 -24 -2 -26 27 -18
right_child=5 2 -4 4 20 -7 7 -9 9 10 -12 15 13 14 17 16 26 18 -20 -21 -22 -23 23 -25 25 -27 -28 -29
leaf_value=-0.020750953843551471 -0.029415881262085553 0.0024638996870117724 -0.076656461619747193 0.58380764553666542 0.36748786661908023 -0.095701439052743489 -0.023304833311214725 -0.087031554738970091 0.57187734232055476 0.27116094267600716 -0.112141304417016 -0.035458922665614817 0.58645277554973807 -0.081694780688788757 0.44850682572590383 0.010983803209032581 0.4445873231145025 0.046242946307950811 0.69378670053494917 0.031116720298088749 -0.041485727947877617 -0.10555935612583003 -0.13269271890439777 0.63697909692300936 -0.12548205170718954 0.70466814049260884 -0.0518197973561891 0.094191105784929105
leaf_weight=9.5514690582640487 84.397879144409671 103.46491799550131 118.65747290430591 2.2602289104834199 1.95971722807735 200.73338873684406 50.072481391718611 65.799318592529744 2.2630548872984937 4.8544961051084083 4.5207276823930442 8.0252005620859546 1.738212998490783 3.7452101300004896 1.9180771878454779 1228.2548161118757 3.6813958170823717 1.3561122920364144 2.2722770276013762 5.4716539750806987 5.0514359788503498 32.894145776284859 1.492497316328808 1.838135286234319 0.91424528951756534 1.0354864990804344 3.9916679710149774 5.6720368645619601
leaf_count=598 23592 12499 26936 120 114 97666 2367 10755 143 310 303 381 246 601 128 56086 210 170 240 479 444 4488 257 123 232 133 462 479
internal_value=-0.00869458 0.00242706 -0.0398021 0.00890193 0.197398 -0.0734223 0.00768782 -0.0375654 0.015178 0.180747 0.0863328 0.0120862 0.122248 0.205019 0.16011 0.00985417 0.0124477 0.242302 0.451767 0.139454 0.0728282 -0.0629162 0.0606072 0.29208 -0.0216298 0.315404 0.147178 0.232103
internal_weight=1957.89 1670.81 222.122 1448.68 9.27138 287.081 1439.41 127.51 61.7108 11.6383 9.37522 1311.9 26.053 16.5015 14.7633 1285.85 1241.6 11.0181 3.62839 7.38973 7.01115 44.25 11.3558 3.33063 86.3476 1.94973 13.3451 9.35343
internal_count=240562 118939 39435 79504 678 121623 78826 13878 3123 756 613 64948 2462 1864 1618 62486 57237 1017 410 607 558 5249 761 380 23957 365 1151 689
is_linear=0
shrinkage=0.124582


Tree=16
num_leaves=29
num_cat=0
split_feature=18 1 139 8 99 31 39 80 87 5 36 79 34 153 32 48 55 25 5 7 86 67 48 17 92 97 84 28
split_gain=76.0757 29.5987 41.6901 19.1733 19.2475 18.878 15.9493 19.6866 15.4874 24.7348 22.9537 19.2296 13.8572 20.0575 18.5721 17.724 31.9995 65.6248 14.7292 27.1181 13.8834 13.0249 21.2307 37.9709 13.3486 12.0169 30.8497 12.0476
threshold=14503.453491436479 202101.50000000003 1.5000000000000002 1048.4476783511448 -3.4999999999999996 239.04783674214005 -7394.0918559777992 2147.3877903205571 7762.8728704605855 36796.306976777698 346.32186119602903 19.871066755799486 239.60126676342801 12884.304432426858 45.500000000000007 1545.5000000000002 1.0000000180025095e-35 4255.5000000000009 1197.0767287823753 -33.915063266237993 -17763.122477514578 1.0000000180025095e-35 1204.5000000000002 2.5000000000000004 1.0000000180025095e-35 7.5000000000000009 -1.0000000180025095e-35 78.500000000000014
decision_type=2 2 10 10 10 2 8 10 10 10 8 10 8 8 8 8 10 8 8 10 8 10 8 2 8 10 8 2
left_child=1 2 -1 4 6 12 -3 25 -6 10 11 -10 13 -2 15 18 17 -17 19 -15 -14 -7 23 24 -23 27 -27 -8
right_child=5 3 -4 -5 8 21 7 -9 9 -11 -12 -13 20 14 -16 16 -18 -19 -20 -21 -22 22 -24 -25 -26 26 -28 -29
leaf_value=-0.0029017224412174422 -0.041492053159459093 -0.034834481788621315 -0.080700952349096439 -0.037233085301943386 0.0093881003574478386 -0.099224213781579279 0.07123498495983932 0.34258021534560423 0.44388773379193219 0.51226267683527871 -0.024686337158231757 0.084687224392709107 0.22304218345846111 -0.12509461697138904 -0.038029086944030357 1.8365203074676526 0.0068848510638746105 0.25514827093145814 -0.12516056751286295 1.0318876969864847 -0.059895830425309091 -0.12512389615075822 -0.060099720611879896 1.3359187028808313 0.65937856973274467 0.4264722603357019 0.083212316243242712 -0.028029102790517173
leaf_weight=742.63792271283455 10.358575381804256 23.01107549155131 124.88109197269659 84.149869290878996 521.92369215982035 175.09861221816391 93.15303099702578 4.1963858650997272 3.6950052022002637 2.1400510706007472 15.266975359758366 6.1853809873573482 2.8119108397513628 0.63140047574415803 2.8570850938558587 0.69820059346966457 0.94327637623064209 0.97755953948944818 1.5213384770322593 0.62632050644606418 62.958767318166792 1.1473837546072891 5.7519462058553472 0.5115251283859833 0.47640973958186816 4.8715999694541097 24.502323481137868 23.8321791770868
leaf_count=37192 2407 993 34280 13858 20552 94972 3859 211 244 291 1940 389 145 193 794 164 270 212 448 101 19187 359 2067 160 142 114 1990 3028
internal_value=-0.00797992 0.0018737 -0.0141011 0.019048 0.0256006 -0.0696897 0.0617646 0.076529 0.0141717 0.105667 0.0710653 0.219019 -0.0209419 0.0739572 0.218823 0.354768 0.587306 0.914022 0.13562 0.45106 -0.0477993 -0.0921699 0.0644374 0.399905 0.105044 0.0689008 0.140141 0.0510129
internal_weight=1941.82 1674.45 867.519 806.928 722.778 267.37 173.567 150.556 549.211 27.2874 25.1474 9.88039 84.3844 18.6138 8.25518 5.3981 2.61904 1.67576 2.77906 1.25772 65.7707 182.986 7.88726 2.13532 1.62379 146.359 29.3739 116.985
internal_count=240562 118941 71472 47469 33611 121621 10195 9202 23416 2864 2573 633 23921 4589 2182 1388 646 376 742 294 19332 97700 2728 661 501 8991 2104 6887
is_linear=0
shrinkage=0.124582


Tree=17
num_leaves=29
num_cat=0
split_feature=17 1 15 19 14 28 62 120 39 28 65 23 147 39 6 135 96 77 134 68 132 14 53 102 23 13 8 96
split_gain=66.069 22.7225 32.9669 22.2816 19.2968 17.418 16.4844 15.4393 22.1304 14.3223 14.0043 14.2299 16.0061 14.8985 14.6514 30.1342 13.5676 13.194 12.8845 12.7624 13.1598 27.7283 14.1338 18.1048 15.0556 19.5041 17.7058 26.0052
threshold=1.0000000180025095e-35 202103.50000000003 3160.4234559038737 1.0000000180025095e-35 10104.675974259198 1.0000000180025095e-35 264875.32338830561 1.0000000180025095e-35 1.0000000180025095e-35 142.50000000000003 57065.363168402597 374.50000000000006 1.0000000180025095e-35 314.34527323191054 1799.6245181497241 1.0000000180025095e-35 3.5000000000000004 -9115.8182820939383 7615.462176517126 1.0000000180025095e-35 3295.3023520320144 2516.1057202389907 52.500000000000007 240.31338359351096 2289.5000000000005 15.500000000000002 18.560389299518501 -1.4999999999999998
decision_type=2 2 10 2 10 2 8 2 10 2 10 8 8 10 10 8 10 10 10 10 10 10 10 8 10 10 10 10
left_child=1 2 4 7 10 -3 9 8 -2 19 11 -1 13 16 -14 -16 -13 -11 -17 -7 22 -22 24 -24 25 26 -21 -28
right_child=3 5 -4 -5 -6 6 -8 -9 -10 17 -12 12 14 -15 15 18 -18 -19 -20 20 21 -23 23 -25 -26 -27 27 -29
leaf_value=-0.029173262237929775 -0.0074487297134019602 -0.038085139180728748 -0.079227175959535698 0.054748236822498304 -0.041655565117140164 0.17173479527233745 -0.069831698207128187 -0.084369555988990388 0.57278982898728048 0.42958139312885057 -0.059883081110778641 0.00902898059198857 0.037908762869070023 -0.093704878639054967 0.4627629243105757 0.137713618858992 0.16840856635508228 -0.054678010732444569 -0.12737038134091272 0.11211189154403466 0.49935196233572765 -0.12601678551866427 0.035898289092329942 -0.054837094396147458 -5.7369438846478429e-05 0.23526110338585737 0.35259144650016272 0.018332310330010485
leaf_weight=124.58173113316298 25.737117314245555 63.721739722881466 92.756942195002921 22.734051899751648 158.03073279396631 11.605491658672689 23.767779880901799 229.83124169299845 1.0623143392149348 0.89724778989329834 47.71289957081899 527.78392673959024 108.90252308314666 21.725220660911873 3.9328165617771447 12.854751413455238 8.4221984369214606 32.627726609352976 3.6550285744015119 68.853367106989026 2.7500313338823608 1.8345189676620064 112.38078555115499 49.018793099327013 56.666444746544585 10.873039021855218 3.7489739500451824 99.217714110622182
leaf_count=5308 7421 661 19290 3849 28969 113 3582 115912 197 227 3383 18375 5049 1528 212 446 215 5685 472 1234 105 360 6541 1902 3841 1129 218 4338
internal_value=-0.00743935 0.00205578 -0.00812563 -0.063463 -0.00164455 0.0230702 0.0312874 -0.073935 0.0155516 0.0366226 0.00571141 0.0095664 0.0165887 0.00743454 0.0560752 0.152852 0.0115324 -0.0417175 0.0790278 0.0429216 0.0392335 0.249109 0.0368326 0.00834097 0.0560445 0.0734457 0.0632058 0.0305025
internal_weight=1927.69 1648.32 1110.36 279.365 1017.6 537.964 474.242 256.631 26.7994 450.474 859.571 811.858 687.276 557.931 129.345 20.4426 536.206 33.525 16.5098 416.949 405.344 4.58455 400.759 161.4 239.36 182.693 171.82 102.967
internal_count=240562 113183 83247 127379 63957 29936 29275 123530 7618 25693 34988 31605 26297 20118 6179 1130 18590 5912 918 19781 19668 465 19203 8443 10760 6919 5790 4556
is_linear=0
shrinkage=0.124582


Tree=18
num_leaves=29
num_cat=0
split_feature=22 57 149 24 140 29 39 53 22 18 121 94 7 146 29 9 38 22 80 134 57 68 78 134 35 138 138 141
split_gain=54.6996 25.5255 20.2291 17.7023 16.7736 20.4327 17.6496 15.9312 23.5678 15.7741 35.1061 15.6627 24.8626 31.3936 14.4467 19.0404 14.123 42.0328 13.916 13.8511 29.1271 20.4471 16.6731 20.9881 15.9057 14.0031 16.2962 17.4818
threshold=78.500000000000014 151.12190600676004 1504.9267752800718 20309.263350000005 24986.544320816498 8.0000000000000018 -29498.419550610048 76.500000000000014 102.50000000000001 332225.91891196871 1.0000000180025095e-35 -55427.5345735831 -1.0000000180025095e-35 3037.9728105958634 6.5000000000000009 7.5000000000000009 5.5000000000000009 90.500000000000014 -49.526614201934983 -5107.9198147580983 348.1876039168331 91.500000000000014 2086.9016143152689 1.0000000180025095e-35 15393.460104137235 1.0000000180025095e-35 122.85976032399513 -35213.402140399499
decision_type=2 8 8 10 10 10 8 10 2 2 8 10 10 8 8 2 8 2 10 8 8 10 10 10 10 10 10 10
left_child=3 11 -3 4 5 6 14 16 -9 -6 -11 12 13 -2 15 -1 17 -4 -16 20 -8 25 23 -23 -22 -21 -27 -28
right_child=1 2 7 -5 9 -7 19 8 -10 10 -12 -13 -14 -15 18 -17 -18 -19 -20 21 24 22 -24 -25 -26 26 27 -29
leaf_value=0.34643579245069439 0.95403224950207488 -0.029260817291198369 0.93468917169806653 0.21542453382765081 -0.043390663900744406 -0.06728747382537377 -0.093726855660438202 0.93675963243007843 -0.12529902612454974 -0.12515466630741623 1.2977603316351372 0.012639912788052999 -0.074200556540658616 0.1134444130707537 -0.020205997872698462 0.008802075811022424 -0.096279233349750429 -0.055228568160854787 0.15300513694125337 -0.0033453437865924827 0.033728972824575661 0.45634556065804183 0.45323129354298713 0.023306452176076586 -0.042897711079872877 0.060322370276776782 0.25782191604763466 0.0093847074809824873
leaf_weight=6.6157562972512078 1.2517131722997872 186.60108104662504 0.81949101760983367 6.1442083441652349 128.42845234589186 54.254152314737439 60.244582503801212 0.58149553788825759 0.73316070635337383 0.69883393682539341 0.43764817994087946 48.332844702526927 2.1326810296159229 1.5355171391274782 18.608492201194171 4.2626824101898819 176.1859845778672 3.5482781532919034 11.741429157555102 467.82092146773357 116.9177768434165 2.1123034964548415 2.5159325498389071 9.7801945327082631 65.653258250909857 154.2675479829777 4.4482424441957837 374.87827400374226
leaf_count=212 156 37896 193 343 29284 419 1822 85 252 284 110 11643 328 420 245 315 92246 955 193 31591 2535 147 176 829 1728 3387 468 22300
internal_value=-0.00681638 -0.0464269 -0.0580789 0.00439605 0.00352214 0.00761959 0.0107461 -0.0876468 0.344468 -0.0393015 0.422796 0.0341963 0.245965 0.490943 0.0909556 0.214135 -0.0907932 0.130502 0.0468039 0.00811871 -0.0186124 0.0145083 0.161862 0.100221 0.00617372 0.0123882 0.0261824 0.0122981
internal_weight=1911.55 421.722 368.469 1489.83 1483.69 1354.12 1299.87 181.868 1.31466 129.565 1.13648 53.2528 4.91991 2.78723 41.2284 10.8784 180.554 4.36777 30.3499 1258.64 242.816 1015.82 14.4084 11.8925 182.571 1001.41 533.594 379.327
internal_count=240562 144174 131627 96388 96045 66367 65948 93731 337 29678 394 12547 904 576 965 527 93394 1148 438 64983 6085 58898 1152 976 4263 57746 26155 22768
is_linear=0
shrinkage=0.124582


Tree=19
num_leaves=29
num_cat=0
split_feature=27 92 1 139 9 19 144 39 103 89 78 146 106 75 79 16 20 41 28 82 82 96 68 100 150 1 100 48
split_gain=47.6955 18.9125 19.1331 23.2572 18.3364 16.4258 17.1101 17.9711 19.0252 24.5534 14.6916 28.8881 13.1038 31.7149 20.7703 12.5112 13.2779 12.4052 23.3278 12.3484 17.4534 12.0442 12.8043 13.2573 15.3386 22.9476 13.5295 13.0276
threshold=315.32646361916369 591.00717849574107 202101.50000000003 1.5000000000000002 7.5000000000000009 1.0000000180025095e-35 0.0065220898152480418 -16207.156945027698 -691.49665485013793 -5.4999999999999991 -3161.9688595880043 5287.4365409435495 4436.1408727743765 691.3302156795902 -496.89622956913195 53867.512258273819 9.5000000000000018 59886.800246028673 72.500000000000014 187.70252747976858 414.16845685266162 1.0000000180025095e-35 190.50000000000003 -23.499999999999996 -293.0479128316021 202105.50000000003 -34.499999999999993 inf
decision_type=2 10 2 10 2 2 8 8 8 8 8 8 10 8 8 2 10 8 2 10 10 10 10 8 10 2 10 8
left_child=1 2 3 15 5 6 7 -2 9 -9 11 -7 -8 -14 -15 16 -1 -12 -19 -11 -21 22 23 24 -4 27 -27 -26
right_child=4 -3 21 -5 -6 10 12 8 -10 19 17 -13 13 14 -16 -17 -18 18 -20 20 -22 -23 -24 -25 25 26 -28 -29
leaf_value=0.00073140385650400307 0.3441118652066309 -0.05936020910272511 -0.0011410687515217711 -0.068582051892653179 -0.10145890822997036 0.90185446350334253 -0.10301339961106197 0.91294584064489992 -0.029937923179007075 -0.070242936976638817 -0.045468184282611755 -0.12551248053883413 1.2613770126095971 0.87752415558391594 -0.12486913889063676 -0.066843865277747841 0.21789550544078704 0.67550775276266906 -0.047134360816397353 0.90929661113110805 0.025519761752316173 0.073401349037572131 -0.076899760439664983 0.012028233544564939 -0.030392280517675199 0.4226873507694161 0.13607332299051911 0.21570386534845729
leaf_weight=676.71822139015421 2.3244219849584624 76.963268008315936 19.601808651350439 91.731897264369763 95.572429272113368 0.9689809135161338 57.192956360056996 0.7062237982172519 52.869674927904271 2.2566527267917995 6.1031808969564718 0.75639524776488543 0.35947823489550446 0.372852674103342 2.299598619807512 43.414069286198355 4.3982437036465845 1.2377205661032351 1.5763483946211634 0.60007221717387416 0.82179439917672426 56.086038616369478 23.539389541954733 658.49998387799133 10.392535233404487 5.4944828532170504 4.7801025025546533 4.9187816136982301
leaf_count=30866 227 14620 990 28709 58792 161 38810 181 18786 893 695 170 223 243 1489 4405 141 186 349 160 258 2657 4660 30762 601 178 223 127
internal_value=-0.00627955 0.000963003 0.00386544 -0.00948202 -0.0600026 -0.0296293 -0.0428056 0.00453011 -0.00925627 0.240116 0.118696 0.451463 -0.0896335 0.16276 0.0149819 -0.00199944 0.00213372 0.0543092 0.270708 0.110942 0.398501 0.0177744 0.0134842 0.0165077 0.0817849 0.145316 0.289344 0.0486664
internal_weight=1902.56 1676.54 1599.58 816.262 226.019 130.446 119.804 59.5788 57.2544 4.38474 10.6426 1.72538 60.2249 3.03193 2.67245 724.531 681.116 8.91725 2.81407 3.67852 1.42187 783.313 727.227 703.688 45.1877 25.5859 10.2746 15.3113
internal_count=240562 118939 104319 64121 121623 62831 61270 20505 20278 1492 1561 331 40765 1955 1732 35412 31007 1230 535 1311 418 40198 37541 32881 2119 1129 401 728
is_linear=0
shrinkage=0.124582


Tree=20
num_leaves=29
num_cat=0
split_feature=17 14 130 6 62 46 18 149 86 148 149 1 15 92 79 113 99 5 23 65 3 71 71 78 43 36 6 61
split_gain=41.5467 16.8862 25.4336 15.4042 14.5606 14.9917 26.4009 38.061 21.5595 21.4426 19.5737 14.4662 18.5478 17.1866 16.377 15.4486 17.1345 15.1252 14.4367 14.2744 16.2558 14.2473 14.0702 27.6618 18.5629 49.2872 13.1545 17.5094
threshold=1.0000000180025095e-35 2516.1057202389907 60576.055001351204 3340.7729720203133 9852.2328496273494 12.500000000000002 52899.445858908417 37305.259613765484 -17763.122477514578 94536.171196901458 9866.9002284154176 202104.50000000003 3160.4234559038737 -43.772370307316343 -157.01729037002102 1.0000000180025095e-35 -24.499999999999996 23334.036564449045 374.50000000000006 127314.72523388079 69.500000000000014 9743.7131627534782 628.15352940825017 521.25100656426378 61007.440960013068 1273.3429437741217 151.52940099957453 4687.803030155018
decision_type=2 8 10 10 8 10 2 10 8 10 8 2 10 8 8 2 8 10 8 10 2 10 8 10 8 8 10 10
left_child=3 2 4 11 5 8 7 10 -2 -10 -7 12 18 22 -15 19 -17 26 -1 -16 -21 -20 23 -13 -24 -26 27 -18
right_child=1 -3 -4 -5 -6 6 -8 -9 9 -11 -12 13 -14 14 15 16 17 -19 21 20 -22 -23 24 -25 25 -27 -28 -29
leaf_value=-0.03384315730747095 0.5320449171753745 -0.07617781158465052 0.89018932013480168 -0.068228803467031335 -0.057564815612354124 0.54943691186102639 0.013994652240559003 1.1765812584877937 -0.054436647870350276 0.57180506519607555 -0.12660758895515292 0.043233817336377413 -0.060427764293349583 -0.04125718482734806 0.0011488113667255636 0.35313909414173894 0.46385773035997752 -0.04916577667588852 0.0091455966397384694 0.28400087539602797 0.0057396158929086481 -0.082031615312635017 0.016432412594853389 0.39616645307392889 1.1109686030134309 -0.0037988986225796582 0.063894300702181259 0.10673410902067863
leaf_weight=160.90681492618751 1.1232633725740016 166.52813433739357 0.48958257795311411 48.077546817366965 43.031473339535296 1.3785196288954449 5.1687612389214337 0.8604264783207326 20.188259577844303 0.88583995657972892 1.2837079790188004 7.7181754646589962 82.898895561345853 66.222427273285575 200.46806114306673 3.242111103143543 3.122378579573704 15.608618098893201 921.49269593856297 6.1017903324682248 6.9927274208748713 27.390080482582562 26.495212586363781 6.2280218354426324 0.90408261585980565 1.9289507224457341 55.952393905492499 6.7098423196002841
leaf_count=8920 39 105148 77 11778 15266 100 1368 207 4738 130 306 437 16637 3933 3618 250 130 2520 52343 212 194 3530 2596 289 135 393 4919 349
internal_value=-0.00580876 -0.0541313 -0.00479137 0.00125403 -0.0107189 0.0545425 0.193246 0.456259 0.000233053 -0.0281129 0.223453 0.00334138 -0.0035837 0.0236003 0.0147858 0.0272316 0.0722754 0.0610879 0.000662426 0.00938062 0.135404 0.00651371 0.0978286 0.200845 0.0488423 0.351948 0.0872476 0.220144
internal_weight=1889.4 240.938 74.4098 1648.46 73.9203 30.8888 8.69142 3.52265 22.1974 21.0741 2.66223 1600.38 1192.69 407.695 364.42 298.198 84.6353 81.3932 1109.79 213.563 13.0945 948.883 43.2744 13.9462 29.3282 2.83303 65.7846 9.83222
internal_count=240562 127379 22231 113183 22154 6888 1981 613 4907 4868 406 101405 81430 19975 16125 12192 8168 7918 64793 4024 406 55873 3850 726 3124 528 5398 479
is_linear=0
shrinkage=0.124582


Tree=21
num_leaves=29
num_cat=0
split_feature=17 31 56 154 32 41 149 89 22 52 77 15 12 100 10 36 68 15 43 116 69 92 11 6 132 78 70 3
split_gain=34.8443 14.4879 13.8272 34.4376 13.6597 18.2087 12.9721 12.731 17.6743 18.3993 33.6355 10.6158 10.9771 15.2951 19.6078 20.2855 26.1947 28.5631 13.0232 21.1384 35.362 12.9936 11.6176 18.5839 37.6006 11.1383 17.9672 11.1933
threshold=1.0000000180025095e-35 239.04783674214005 10691.182334324361 0.44592967459421312 76.500000000000014 -1.0000000180025095e-35 23919.927404533428 -6.4999999999999991 48.500000000000007 1041.0777861454203 -433.39211580620429 7990.6912735078176 -1446.0175290003997 -5.4999999999999991 246.65672481871101 1385.6072823638517 20.500000000000004 4293.0580967652249 5098.9363102000016 1.0000000180025095e-35 4074.5000000000005 -229.22885625581395 1.0000000180025095e-35 51.248255054359504 25.811885283682006 -1788.7860304525368 5302.5000000000009 181.50000000000003
decision_type=2 2 8 10 8 8 8 8 2 10 8 10 8 8 2 10 8 8 8 2 10 8 2 10 8 8 8 2
left_child=2 -2 -1 4 6 -6 11 8 -3 10 -10 12 22 18 15 -15 -17 -18 19 21 -21 -14 -4 24 -24 26 -23 -28
right_child=1 7 3 -5 5 -7 -8 -9 9 -11 -12 -13 13 14 -16 16 17 -19 -20 20 -22 25 23 -25 -26 -27 27 -29
leaf_value=0.013196454649501192 -0.011953801521558361 0.76741300352247777 -0.068878522305402187 -0.065175433753514644 0.28279524173545023 0.032839197147550951 0.1735298517961841 -0.085206545474897158 1.7232096002733097 -0.032972028062935636 -0.12483674771207939 -0.1104961098082457 0.28640574587010831 0.0042606702642652393 -0.025078275311648329 -0.076925743009920361 0.53099822266998353 0.13870797587883749 -0.025280958258552019 0.10922158448155826 0.73442567242910251 0.019799551219757017 0.37699032580924857 -0.019220519849312508 -0.046773480109238874 -0.010758688311803292 0.10144190568189841 0.3875445412411147
leaf_weight=763.91486399725545 90.15997331275139 0.53793172177392978 67.003293119603768 145.10866201855242 4.7636774405837059 89.67715734639205 6.2371773285558438 131.70202810817864 0.26953048422001302 6.6742047574371099 0.35311583266593505 15.024109246791339 3.6856219347100705 57.369517630897462 203.73321103409398 6.7987697531934854 3.4709650814766091 16.940369382151403 21.668219693587162 4.7015211815014473 2.0020364719675854 13.482279540272431 5.6556382055859995 177.41438752459362 7.6397181473439559 26.427863555494696 4.0595437181182188 4.4477346127387136
leaf_count=32267 25634 47 539 37423 116 6142 357 96826 162 4484 226 3604 137 1628 19692 120 264 603 2813 388 120 593 137 4648 261 1007 154 170
internal_value=-0.00541452 -0.0508779 0.000909752 -0.00966826 0.00118399 0.0454472 -0.00526939 -0.0760283 0.0782574 0.0274521 0.675144 -0.00700776 -0.004526 0.00925941 -0.00414482 0.0462791 0.13487 0.205417 0.057282 0.0877037 0.295941 0.060912 -0.0242529 -0.00857435 0.133489 0.043747 0.109254 0.251021
internal_weight=1880.92 229.697 1651.23 887.311 742.203 94.4408 647.762 139.537 7.83478 7.29685 0.622646 641.525 626.501 368.788 288.313 84.5796 27.2101 20.4113 80.4748 58.8066 6.70356 52.103 257.713 190.71 13.2954 48.4174 21.9896 8.50728
internal_count=240562 127379 113183 80916 43493 6258 37235 101745 4919 4872 388 36878 33274 27689 22307 2615 987 867 5382 2569 508 2061 5585 5046 398 1924 917 324
is_linear=0
shrinkage=0.124582


Tree=22
num_leaves=29
num_cat=0
split_feature=12 43 146 68 54 60 36 36 142 22 147 8 104 29 84 53 6 1 52 129 0 25 77 135 69 47 63 91
split_gain=28.9147 15.8494 13.2963 20.0906 16.5728 30.2729 24.7986 14.8449 13.8499 31.1246 12.5018 13.9223 12.2917 12.8634 16.4934 18.8942 14.6938 13.9758 14.4523 20.0595 15.519 14.167 13.943 16.1088 13.4781 22.8233 40.6405 28.1484
threshold=49869.691498335516 33789.82646192344 4406.3838966558505 1.0000000180025095e-35 317.50000000000006 8.5000000000000018 2419.3733670567549 2159.5811433611402 117003.47198746489 134.50000000000003 7486.3677659851155 93.09790643488401 -1971.2016451622612 8.0000000000000018 -1.0000000180025095e-35 64.500000000000014 1395.8344196096957 202106.50000000003 1792.619669611475 0.075000000000000025 32030851.000000004 5586.5000000000009 1286.4418276540275 1.0000000180025095e-35 3379.5000000000005 79.500000000000014 10.500000000000002 3292.5087377777195
decision_type=10 8 10 8 10 10 8 8 10 2 10 8 8 10 8 8 10 2 8 2 2 10 10 10 10 8 10 8
left_child=2 -2 10 -4 7 -6 -7 8 -5 -10 12 -12 -1 14 15 -14 -16 18 -18 -20 21 -21 -19 -24 -22 26 -26 -28
right_child=1 -3 3 4 5 6 -8 -9 9 -11 11 -13 13 -15 16 -17 17 22 19 20 24 -23 23 -25 25 -27 27 -29
leaf_value=0.22695508479645488 -0.022806328479675023 -0.087766866669112348 0.5595456287316094 -0.022729971579716384 -0.08850349390548394 0.91394880937972656 0.1256760617440468 -0.10093042117473658 -0.12945201821681462 0.99510097307574186 0.30624952327037192 0.013568667370964703 0.029263953741732945 -0.060961798049294663 -0.0058731017402541205 0.19147469135808592 0.00084316922480430826 0.02657343939551219 0.3628560591089795 0.5505830573716024 0.011567005045254413 -0.016226584893960588 0.072396867427891767 0.28525876834458774 0.060570234537563959 -0.094735415876237433 0.93424826479721879 0.15786295042314843
leaf_weight=3.8484812807291746 199.08732930134283 82.430188349739183 0.89319459488615294 132.19340949773323 2.943170011159963 1.1857749307528136 1.2968837084481495 45.237801527255215 0.89504789444617816 0.66640483238734305 4.5182485950062965 5.7108465226483531 43.296803681994788 45.754037354956381 874.67497779597761 15.008306456962599 283.66467285796534 30.698948017205112 3.2924312721006563 1.7706917271716514 57.481891991454177 1.1156208685133604 14.32528005691711 8.9750932357273978 5.170571226975877 3.8305461751297125 1.8722693137824533 1.1825860304525124
leaf_count=354 57003 42291 12 35289 561 158 173 12500 173 210 157 676 1678 405 65605 581 12043 1378 77 192 6263 199 265 307 601 1028 261 122
internal_value=-0.00502318 -0.0418272 0.001487 -0.0298811 -0.0327359 0.181768 0.502173 -0.0392382 -0.018373 0.35049 0.00562077 0.142847 0.00461523 0.00400057 0.00620822 0.0710186 0.00327451 0.02263 0.0137506 0.0621069 0.0484348 0.331499 0.0817252 0.154389 0.0366856 0.156449 0.273425 0.633696
internal_weight=1873.02 281.518 1591.5 185.312 184.418 5.42583 2.48266 178.993 133.755 1.56145 1406.19 10.2291 1395.96 1392.11 1346.36 58.3051 1288.06 413.381 359.381 75.7166 72.4242 2.88631 53.9993 23.3004 69.5379 12.056 8.22543 3.05486
internal_count=240562 99294 141268 49076 49064 892 331 48172 35672 383 92192 833 91359 91005 90600 2259 88341 22736 20786 8743 8666 391 1950 572 8275 2012 984 383
is_linear=0
shrinkage=0.124582


Tree=23
num_leaves=29
num_cat=0
split_feature=18 9 91 136 27 1 13 118 11 3 32 36 4 134 98 22 41 133 22 51 82 75 20 2 74 21 39 3
split_gain=26.6404 20.3857 14.437 12.9809 19.5146 12.8307 20.9365 13.4538 15.4819 20.3956 15.0982 12.6874 12.6466 12.6077 11.9887 16.0006 25.7621 19.6375 15.484 20.2871 21.67 31.2401 11.55 11.0294 17.6501 43.2883 17.3936 10.3833
threshold=52899.445858908417 7.5000000000000009 1.0000000180025095e-35 92034.772968749996 1713.8605577428605 202056.50000000003 2.5000000000000004 1.0000000180025095e-35 1.0000000180025095e-35 61.500000000000007 56.500000000000007 1385.6072823638517 510.89323725812454 210892.06332282189 51.500000000000007 150.50000000000003 84120.101014496046 35586.452879543496 28.500000000000004 2624.5000000000005 133.96418861251087 2786.7423265833963 1.5000000000000002 40.500000000000007 4037.5000000000005 15.500000000000002 -29498.419550610048 244.50000000000003
decision_type=2 2 8 8 2 2 10 2 2 2 8 8 8 10 10 2 10 8 2 8 10 10 8 2 10 8 8 2
left_child=5 2 3 23 -5 6 7 8 9 11 -11 -1 -13 14 -7 16 18 -18 -16 -20 -21 -22 -6 24 -2 -26 -25 -12
right_child=1 -3 -4 4 22 13 -8 -9 -10 10 27 12 -14 -15 15 -17 17 -19 19 20 21 -23 -24 26 25 -27 -28 -29
leaf_value=-0.14271817419363519 0.046242822288336247 -0.10907808695915922 -0.07110267324833798 1.0085092158301707 0.088051497172379034 0.009445627082032693 -0.047923779119285199 -0.085959393102204823 0.015234533204861187 -0.026518491668672255 0.18288757105033715 -0.10697928958239243 0.10387567259247556 -0.06021231080968429 -0.084533756888724498 -0.10507630376836183 0.91222723868390621 0.20696346943892627 -0.032662238457186243 0.11054406762538808 0.80214572528493355 0.11568134402625554 0.77246061279062594 0.72290165548206953 1.4637288539731257 -0.12479456465157875 -0.071641078650305695 -0.027743152054852387
leaf_weight=32.231878744903952 17.741975746932443 63.025705869600642 39.077932177053299 0.43546770559623738 4.9279298041947186 904.2086916496628 192.99088566331193 27.032140860916115 413.91940089059062 44.225058260140941 11.003700692090208 9.7739514852873963 8.0518950547557342 39.072980431199539 5.8633327062707492 5.3909464227035633 1.0773929472197767 1.4208990862243811 5.9213074377621551 6.2885852328618039 2.178386643063277 1.9499877954367546 0.41492764430586238 0.43668409844394773 0.47011446685064462 0.6139949968783186 20.624552088265776 5.4225621910300097
leaf_count=666 8690 51108 26789 71 1786 53664 47049 5624 20089 1083 413 170 225 8333 114 1210 151 203 674 495 128 252 116 61 285 509 10501 103
internal_value=-0.00466219 -0.0554217 -0.0155162 0.0320515 0.206565 -0.000296307 -0.0126055 -0.000249914 0.00416638 -0.0372153 0.0113636 -0.0960749 -0.0117366 0.00912051 0.0120201 0.0893798 0.131821 0.51111 0.089141 0.151468 0.256133 0.477903 0.141203 0.00677033 0.0760613 0.564055 -0.055167 0.113355
internal_weight=1865.79 147.769 84.7436 45.6656 5.77833 1718.02 744.651 551.661 524.628 110.709 60.6513 50.0577 17.8258 973.373 934.3 30.0908 24.6999 2.49829 22.2016 16.3383 10.417 4.12837 5.34286 39.8873 18.8261 1.08411 21.0612 16.4263
internal_count=240562 99916 48808 22019 1973 140646 75422 28373 22749 2660 1599 1061 395 65224 56891 3227 2017 354 1663 1549 875 380 1902 20046 9484 794 10562 516
is_linear=0
shrinkage=0.124582


Tree=24
num_leaves=29
num_cat=0
split_feature=27 9 91 39 36 47 82 142 87 0 88 140 19 135 133 104 91 28 132 36 42 70 6 22 22 48 72 76
split_gain=22.6267 19.043 13.5018 12.4495 12.053 21.3834 31.316 23.0398 45.289 12.389 11.0481 16.9857 10.378 10.045 27.8905 9.97229 22.0683 14.4299 16.0824 12.065 12.8724 37.1483 11.9791 19.5112 9.59487 16.1082 9.44114 10.2223
threshold=1217.0180946641126 7.5000000000000009 1.0000000180025095e-35 314.34527323191054 150.91577866017852 115.50000000000001 -560.53969958827463 -54597.044111734984 493.39636467749614 34889506.000000007 -167226.65712435223 24986.544320816498 5.5000000000000009 -4012.9221976666345 2662.625414980389 -1440.5647115558456 -10717.688825424759 114.50000000000001 76.870892411069505 2159.5811433611402 49.500000000000007 5048.5000000000009 402.69694110297502 114.50000000000001 42.500000000000007 575.50000000000011 7643.7112214342005 1703.7202850545102
decision_type=2 2 8 10 8 8 8 10 10 2 8 10 2 8 10 8 8 2 10 8 8 10 8 2 2 10 8 10
left_child=3 2 4 12 5 9 -7 -8 -9 -2 11 -6 15 14 -5 16 -1 -17 -19 20 26 -22 23 -18 25 -12 27 -20
right_child=1 -3 -4 13 10 6 7 8 -10 -11 24 -13 -14 -15 -16 17 22 18 19 -21 21 -23 -24 -25 -26 -27 -28 -29
leaf_value=0.52175707161929052 0.68282818136735457 -0.10914558317046297 -0.071771308668257261 0.94488595167686806 0.94954075518160896 1.4255758030628571 -0.052089231360642356 0.037883226224548705 1.5433901654718554 0.022273572695980487 -0.036532440862175934 -0.12493687099324678 0.27711493284253741 -0.061005668710037902 -0.12693206879848218 0.0037043423792802277 0.042502729528062805 -0.12523522368838388 -0.024724224275107193 -0.081544898037828828 -0.030994743969400586 1.1669204603361609 -0.12886481999760879 0.49709754774390308 -0.051384522047970019 0.68216032443378849 0.40040279568339687 0.11144726933993623
leaf_weight=1.7117850857903247 0.45531274075620132 55.507600850600284 37.290793903986923 0.58123467245604832 0.45293000497622415 0.40145840210607275 1.6711932935868397 0.76350141724105813 0.52226532786153257 13.719440373999531 1.3278942701290426 0.46053099387791008 2.1209553922526529 64.828224383876659 1.0713973022648131 1512.4089721634518 8.4543115510605258 27.267360334226396 50.296504786761943 30.030198344553355 1.3187329249922175 0.57784745405660931 4.1873968889121906 1.772616574191489 27.769924174412154 0.76166579610435281 0.92069259553681959 10.310262590239288
leaf_count=283 85 50192 27452 87 61 162 650 351 180 4834 281 304 26 9756 335 92457 745 10405 10847 11659 386 148 1130 258 15172 198 89 2029
internal_value=-0.00435454 -0.0523118 -0.0154565 -0.000415337 0.0280168 0.11046 0.393114 0.252939 0.649405 0.0434915 -0.0189562 0.407832 0.00171263 -0.0532737 0.250029 0.00135846 0.0988473 0.000395818 -0.0410536 -0.0164918 0.0143098 0.333984 0.0486243 0.121297 -0.0320125 0.225438 0.00445584 -0.00155909
internal_weight=1858.96 141.105 85.5969 1717.86 48.3061 17.5332 3.35842 2.95696 1.28577 14.1748 30.7729 0.913461 1651.38 66.4809 1.65263 1649.26 16.1261 1633.13 120.722 93.4542 63.424 1.89658 14.4143 10.2269 29.8595 2.08956 61.5275 60.6068
internal_count=240562 99922 49730 140640 22278 6262 1343 1181 531 4919 16016 365 130462 10178 422 130436 2416 128020 35563 25158 13499 534 2133 1003 15651 479 12965 12876
is_linear=0
shrinkage=0.124582


Tree=25
num_leaves=29
num_cat=0
split_feature=17 80 39 100 20 59 19 146 100 134 95 29 6 32 37 13 5 3 66 4 63 47 26 138 59 41 38 133
split_gain=20.3084 12.6204 13.1478 13.8999 12.9784 23.2517 12.2615 12.1798 13.5648 15.4597 11.4229 10.8439 10.9634 10.1865 19.9136 10.6232 9.79306 14.9433 16.569 18.0793 17.5278 9.5465 9.35085 18.0523 15.4758 9.30173 12.172 10.4651
threshold=1.0000000180025095e-35 -430.67192037548045 -29498.419550610048 -5.4999999999999991 11.500000000000002 266.10796612313857 1.0000000180025095e-35 12747.073624442051 -5.4999999999999991 -12455.800005172676 -1.0000000180025095e-35 8.0000000000000018 245.74440405879503 64.500000000000014 174.61935113905801 6.5000000000000009 21061.723896297484 148.50000000000003 14545.205571805311 963.14455064139065 3.5000000000000004 20.500000000000004 2232.2316768573305 122.85976032399513 135.33401199519702 209146.57298095152 4.5000000000000009 1.0000000180025095e-35
decision_type=2 8 8 8 10 10 2 10 8 10 10 10 8 10 8 8 8 2 8 10 8 10 8 10 8 8 10 8
left_child=1 -1 3 -3 7 -6 11 8 9 -4 -11 12 13 -2 -15 -16 17 18 -8 -20 -21 -5 23 24 -9 26 -12 -27
right_child=6 2 4 21 5 -7 16 22 -10 10 25 -13 -14 14 15 -17 -18 -19 19 20 -22 -23 -24 -25 -26 27 -28 -29
leaf_value=-0.032297084623253133 -0.028057273093060661 -0.06222798284277279 -0.094278899443677358 0.1400372372894679 0.013074186033597264 0.46160324569924255 0.035290487321256531 0.51041349311195106 -0.0029695366854487217 -0.086753084248892817 -0.05340784762263704 0.23485569241470136 -0.081515537772215901 0.69611609819453957 -0.12636593400910984 0.65497988705599697 -0.077389424194702613 -0.058351117127285621 0.063278137957073224 0.22842935470201423 0.83957101600319806 -0.041651690451806785 -0.082331379964684551 -0.15827165172208965 0.024681977773433728 0.12290730015221314 0.055671857074266015 -0.07071533197000783
leaf_weight=164.66119966865517 68.866281152528245 9.265795895480549 15.323780908714978 27.59449320891872 5.5347739387070742 2.6540350485593081 5.205552105791865 1.840556631097569 1100.6504235480679 11.574337127036413 17.136362936347723 2.0149601157172574 104.70733701280551 0.90182395151350558 1.7464868705719716 0.31947422079974774 7.1766894040629294 5.9868974993005386 1.9743111665593494 1.378842805977911 1.5439908468397332 5.3603905701311296 41.901831199764274 3.0459884671727195 2.278171535464935 5.4692625320749357 216.16623260395136 20.846312172245238
leaf_count=17435 32414 396 449 334 264 246 491 61 67646 703 227 283 89714 171 743 205 1838 756 434 104 226 662 8859 334 322 215 12016 3014
internal_value=-0.00413099 0.000428459 0.00405315 0.0725804 0.00205009 0.158445 -0.0414362 0.00115839 0.0033161 0.0274623 0.0343413 -0.0525208 -0.0558008 -0.0183182 0.207672 -0.00554089 0.0436319 0.097613 0.190038 0.354531 0.551266 0.110484 -0.0598423 0.071682 0.241743 0.03974 0.0476598 -0.030474
internal_weight=1853.13 1651.3 1486.64 42.2207 1444.42 8.18881 201.823 1436.23 1387.17 286.516 271.193 178.556 176.541 71.8341 2.96779 2.06596 23.2663 16.0896 10.1027 4.89714 2.92283 32.9549 49.0665 7.16472 4.11873 259.618 233.303 26.3156
internal_count=240562 113183 95748 1392 94356 510 127379 93846 84270 16624 16175 123530 123247 33533 1119 948 3849 2011 1255 764 330 996 9576 717 383 15472 12243 3229
is_linear=0
shrinkage=0.124582


Tree=26
num_leaves=29
num_cat=0
split_feature=16 28 149 1 138 16 100 30 28 140 80 22 20 29 3 46 97 1 2 104 140 76 3 146 2 74 65 48
split_gain=17.5136 28.1915 15.4725 12.6564 12.6038 12.8673 14.6103 13.4156 22.8634 12.4882 13.222 15.5323 14.9143 11.9884 11.2185 13.8911 26.976 40.9682 16.1356 34.2513 39.7814 20.0017 19.5851 22.7503 16.1435 14.1078 10.4144 20.4798
threshold=7913.237916573401 60.500000000000007 164226.41967653905 202105.50000000003 1128.8293056771402 73164.385841813215 6.5000000000000009 3105.5000000000005 11.500000000000002 24986.544320816498 -326.37105862665999 1.0000000180025095e-35 12.500000000000002 6.5000000000000009 46.500000000000007 19.500000000000004 42.500000000000007 202104.50000000003 38.500000000000007 649.93470377634458 37336.138186719596 1103.6641638977578 61.500000000000007 1360.6908425335748 77.500000000000014 168.50000000000003 127314.72523388079 2748.5000000000005
decision_type=2 2 10 2 8 2 10 8 2 10 10 2 8 10 2 8 8 2 2 8 10 10 2 10 2 8 10 8
left_child=9 2 3 4 -2 6 7 8 -6 -1 -11 -12 14 26 -13 16 18 -18 19 22 -21 -22 23 -16 -20 -17 27 -5
right_child=1 -3 -4 13 5 -7 -8 -9 -10 10 11 12 -14 -15 15 25 17 -19 24 20 21 -23 -24 -25 -26 -27 -28 -29
leaf_value=0.0052841555956306459 -0.067668957710922087 -0.097622166930570339 0.34309115582105681 0.19864370998835892 0.51347726910980085 -0.050159534439047464 0.42959544322637666 -0.053410899418519078 0.059257906131520051 -0.068428708482766998 0.53271842118335178 -0.079345824861014519 0.40619720339605536 -0.10439795170290891 0.85609583041374548 0.63798420270388612 0.10147743448425117 1.4076054788235488 -0.016722450073164988 1.8662744200154544 -0.12483672695497465 1.1550963161683081 0.001820056986248258 0.0047051312888758265 0.37583186978763122 -0.033022902051812672 0.14578746913231946 -0.071490955075101406
leaf_weight=1381.1909063982894 64.084386599250138 76.739871157275047 1.956124941818415 6.3624063201132257 2.165159469470388 20.656254416739102 1.7778198698651966 9.1775414747535233 8.3651350234867987 76.209234703623224 0.82835152372717757 30.624885087192524 1.3369009515736241 6.9000202688621348 1.0100264940410832 0.48944344039773469 1.0836947663337912 0.56812243879539881 36.283039358560927 0.37420142372138687 0.5445752747473307 0.29062955203698948 7.4096766409347765 0.94092867628205556 1.7022416401887301 76.043304599821568 17.13239150197478 13.812087477825115
leaf_count=94409 4678 40136 159 315 74 2803 255 993 1110 36754 13 8099 153 45 61 179 332 128 11007 193 476 169 2291 415 233 34118 470 494
internal_value=-0.00380698 -0.0360418 -0.00503137 -0.0095581 -0.0328695 0.0200493 0.0875479 0.0566922 0.152651 0.000760909 -0.0257407 -0.00534815 -0.00815662 0.0464577 -0.0116768 0.00467447 0.0555968 0.550704 0.0387536 0.174898 0.798809 0.320547 0.0942877 0.445478 0.000869162 -0.0287317 0.0743589 0.0137011
internal_weight=1846.06 229.129 152.389 150.433 106.226 42.1419 21.4857 19.7078 10.5303 1616.93 235.739 159.53 158.702 44.2069 157.365 126.74 50.2071 1.65182 48.5553 10.57 1.20941 0.835205 9.36063 1.95096 37.9853 76.5327 37.3069 20.1745
internal_count=240562 51532 11396 11237 9913 5235 2432 2177 1184 189030 94621 57867 57854 1324 57701 49602 15305 460 14845 3605 838 645 2767 476 11240 34297 1279 809
is_linear=0
shrinkage=0.124582


Tree=27
num_leaves=29
num_cat=0
split_feature=18 47 12 134 20 99 140 133 82 32 5 26 103 4 44 71 23 62 149 153 6 0 25 77 38 98 99 38
split_gain=16.3519 13.817 11.2208 17.4412 17.6379 18.5125 18.5729 15.3824 14.7525 13.098 16.5168 13.936 13.5028 13.1205 12.8027 14.2724 13.0973 11.9458 11.7773 12.9649 12.3303 11.6765 11.2519 10.8813 10.5666 12.5424 18.3298 29.2875
threshold=80924.121474148618 49.500000000000007 1347.6984736000002 -1.0000000180025095e-35 1.0000000180025095e-35 -13.499999999999998 515.68565025692953 327.22986668791805 326.402324576892 76.500000000000014 10394.182767203531 108.01039261203 107.63933366286007 1473.6862722309236 1.5000000000000002 1.0000000180025095e-35 580.50000000000011 -3400.4246923174096 65412.727725366014 1440.8783288686166 346.53047317886404 62563771.000000007 3770.5000000000005 -131.72408967113287 8.5000000000000018 14.500000000000002 -17.499999999999996 6.5000000000000009
decision_type=2 8 10 10 10 10 8 8 8 8 10 8 8 10 8 8 8 8 10 8 10 2 10 10 8 10 10 10
left_child=2 -2 3 9 8 6 -6 23 14 18 11 13 -12 -11 -5 16 -16 -10 -1 20 -20 -17 -19 -7 25 -4 27 -27
right_child=1 -3 24 4 5 7 -8 -9 17 10 12 -13 -14 -15 15 21 -18 22 19 -21 -22 -23 -24 -25 -26 26 -28 -29
leaf_value=-0.010043674849974342 0.07132940178142512 -0.074130226580200062 -0.015892842882169609 0.030220926749334766 0.029435214333813336 0.043083538712617775 0.47389245933248514 -0.014968329059283034 0.19444044432273139 -0.016254061908484899 0.35615673755157562 -0.12445758709368859 0.090267198861920486 0.2463768191957314 0.14680012540973089 0.47125690589891356 0.71217730833066228 -0.065249740904348805 0.14432145342547428 0.012136749366309606 0.63031933920503391 -0.081347631046918834 0.050904095310288437 0.25445467193855253 -0.049892577630394459 0.8161455459565814 0.02328257716865624 0.091415643857079842
leaf_weight=729.30991941754473 11.63632184214657 78.576424910745118 411.9535019598552 236.48960183671443 2.3414969829609609 6.8281895242398614 3.8729357663542032 15.873850158648565 3.5773338396684267 9.5459658940671961 3.3854766773292795 10.690270408405921 23.8321490623639 4.2743322092574081 1.2329712026985356 0.7724473983398642 1.3133289348916148 56.627810167206917 2.2301437454298125 5.3119816504186019 1.2725945896236224 2.5613243627594784 16.779646360198967 8.4679197907098551 108.73115679604234 1.1771974387811486 78.361201813910156 3.2680674347211607
leaf_count=31640 3766 69971 62596 10513 84 249 310 1075 299 476 73 848 1145 56 201 114 146 4403 245 2415 176 828 1613 206 32063 178 14331 542
internal_value=-0.00364379 -0.0553677 -0.000977539 0.00625964 0.0291229 0.110088 0.306428 0.0709426 0.019645 -0.00406659 0.0565354 -0.0176475 0.12334 0.0649722 0.0347359 0.216322 0.43841 -0.0278655 -0.00831361 0.134828 0.320891 0.0466929 -0.038699 0.160099 -0.0147277 -0.00699965 0.0372431 0.283339
internal_weight=1840.3 90.2127 1750.08 1146.59 356.739 37.3844 6.21443 31.17 319.354 789.853 51.7282 24.5106 27.2176 13.8203 242.37 5.88007 2.5463 76.9848 738.125 8.81472 3.50274 3.33377 73.4075 15.2961 603.491 494.76 82.8065 4.44526
internal_count=240562 73737 166825 57115 20041 1924 394 1530 18117 37074 2598 1380 1218 532 11802 1289 347 6315 34476 2836 421 942 6016 455 109710 77647 15051 720
is_linear=0
shrinkage=0.124582


Tree=28
num_leaves=29
num_cat=0
split_feature=144 144 86 95 16 23 39 37 97 135 144 27 23 98 88 140 23 129 9 64 46 23 97 56 77 69 5 32
split_gain=14.5286 17.4 12.495 11.0225 10.449 12.7254 11.6349 12.0218 11.1096 14.7179 24.8824 41.1599 15.02 12.0767 21.2048 37.9235 9.77868 9.50788 8.92835 10.7693 14.8634 20.1898 23.986 8.8895 16.1262 15.8396 19.5819 27.298
